61 100
小区 0.0023760956 -0.003963283 0.0013636036 0.0004734531 0.005376695 -0.0013933457 0.0017451259 0.0030707417 0.00043643522 0.003220003 -0.0041276827 0.0039540404 -0.00027733215 -0.00011136803 -0.0026715158 -0.0017507287 -0.0035364318 0.0002483035 -0.0005299202 -0.0025458129 -0.00060684036 -0.0015400999 -0.00035647416 0.0005251504 -0.0041044997 0.0019594464 -0.0016723662 6.415764e-05 -0.00018536391 0.0035563638 0.00014339446 0.0007646478 -0.0045449133 -0.0036895457 0.0031439567 -0.0044448324 -0.0040494734 0.0018445771 0.0046590595 -0.0047613275 0.0017336879 0.0025093537 0.004592342 -0.0025953823 -0.004259545 0.004647303 0.0030445186 -0.0026048627 -0.0021553256 0.0025440943 0.0015956892 -0.0012594225 0.0031527835 -0.0019280823 0.00095408486 -0.0030343859 -0.0044952394 -0.00070836203 -0.0044611744 0.0008078985 0.00011342607 -0.004160907 -0.003958225 0.0045588627 0.003555527 -0.002504457 -0.0036449397 0.0031524834 -0.0033666994 0.0033606312 -0.0028313005 -0.0020821765 -0.0028053725 -0.0003312694 -0.00039709464 -0.0031637119 0.0044881897 -0.002464799 -0.002984372 0.0024285875 -0.0044062077 -0.0012098752 -0.0039832434 -0.0009598597 0.00109356 0.0050778636 0.0040189545 -0.0052038035 0.0015364966 -0.0021313434 -0.00013048293 -0.003697416 0.004902967 -0.0031323775 0.001396105 -0.0020553563 0.0015020305 0.0002960681 0.0031944534 0.003544021
部门 -0.0036986996 0.004474561 -0.0030229904 -0.0048312154 0.0016840481 -0.0020897486 0.0026600189 -0.0006812857 -0.0035252084 -0.0026105887 0.00066347345 -0.0016005565 -0.00047950612 0.002754359 0.0017241754 -0.0045539755 0.0042412076 -0.00332778 -0.003619079 -0.00226943 0.0006282005 0.004659892 0.0012949372 0.0008406012 -0.0025757705 0.0021492662 -0.003380993 -0.0017967218 -0.00041712224 0.0042660604 -0.00307089 0.003782004 -0.0030728108 0.0042952113 0.0042061307 0.0048451424 0.000975122 -0.0035208552 0.0024696677 -0.0029987672 -0.003983748 0.0030838547 0.000118152006 -0.002339596 0.002080795 0.0036848313 -0.0026003295 0.0008674053 0.0010594386 0.004361108 -0.00037596383 -0.0028612288 0.0032805128 0.0046440866 0.004466285 -0.0034901465 0.0029389786 0.00016491492 -0.00458563 0.000883426 0.0018689763 -0.0039538024 -0.003250684 -0.0042890627 -0.0022581604 -0.0049051903 0.0003218517 -0.003943841 0.003769709 -0.0031735017 -0.0036559287 0.0024473316 0.003561399 -0.004300406 -0.0027785348 0.0049323337 0.0020910434 -0.0032152075 -0.000512497 0.0026030182 -0.002425422 -0.004556162 -0.00012072307 0.002987561 -0.0028737488 0.0046973634 -0.003286207 0.0009392901 -0.00330497 0.0040163537 0.0027323118 0.0014029453 0.004736998 0.0039983387 -0.00224699 0.0049411412 0.003738107 0.0037705244 0.00454623 -0.003951626
物业 -0.0014518006 -0.00022813916 0.000395621 0.0016257964 -0.0035981447 -0.0020612034 0.0017540129 0.0010472249 0.00074334646 0.00023778969 -0.00096025964 0.003532959 0.003672363 -0.0036572285 0.0024849586 -0.004427676 0.00091093086 -0.0006646703 0.0021846583 0.0034577502 -0.00035049755 0.0011253253 0.0012833982 -0.0046454226 0.00023433806 0.0018276189 0.002793037 0.0007059538 0.0009417544 -0.0027274066 8.647551e-05 0.003786343 -0.0013350303 0.004036954 0.0024565938 0.00024293209 -0.0021734806 -0.001061512 0.004152183 0.00422757 0.004050565 0.0023402346 0.0013061165 0.0035321286 -0.0043343026 -0.0030605139 0.0035904567 0.00012026255 0.00074215507 0.0015017297 -0.0027348008 0.0023240307 0.004862467 -0.0011401768 -0.003449627 0.0026729298 0.00059793104 -0.001995448 -0.0017648707 0.0002922083 -0.0026835636 0.0030868286 0.0016096046 0.0031191001 0.0024745222 -0.0027779073 -0.0006331126 0.0030150472 0.00055602676 -0.003751845 0.0006704753 -0.004082508 -0.0016131595 -0.0025478455 0.003690207 -0.0026406937 0.004101235 -0.0014681458 0.0025290526 0.004854807 -0.0022741056 -0.0010279706 0.0005730828 -0.0020837807 -0.0008448618 -0.003732754 -0.00087878684 -0.0035329135 0.0042470135 0.0024889417 0.0038021575 0.0016517071 -0.0018425363 0.00049156754 0.0027533222 -0.00087791664 0.0031086432 0.0026208302 0.0037330037 -0.0018910788
业主 -0.003515836 -0.00247814 0.00010556287 0.0016397265 -0.0032366163 0.0036126196 -0.0048064725 0.002193361 0.0043219365 -0.0033586933 -0.0018175492 0.0006285911 -0.0020389124 -0.0038909973 -0.0020806105 0.0048279036 0.00478807 -0.0045742756 0.00046972604 -0.0018451237 0.00408189 -0.0020370698 -0.0016842695 -0.00042701865 0.0029351478 0.0022575257 0.0001999049 0.0037921239 0.0029543685 0.001849657 0.005036243 -0.000861451 -0.0014469819 0.0029411179 0.004951871 -0.0036155346 0.0032283645 0.0027053533 -0.0004918799 0.003313085 0.0036494152 -0.0019583683 0.0016089889 -0.0042831893 0.0034278806 0.0036009129 0.0032732158 -0.0013027948 -8.6312466e-05 -0.0046247793 0.0019289756 0.0034236603 0.0030623963 -0.0006577236 -0.0016668943 -0.001863745 -0.002378872 -0.002870987 0.0008316382 -0.0042259223 0.0037067223 0.0026452693 0.002614727 -0.0009270387 0.0040804613 -0.00026727107 -0.0015374828 0.00021751998 0.0023119845 -0.0009010049 -0.0006595829 0.004552988 -0.0026247273 -0.0038721857 -0.0035334376 0.0048876163 -0.0012629934 -0.00049650413 -0.002879153 -0.0032844255 0.0026097442 0.0045265043 -0.003306009 -0.0033799116 -0.0032391308 0.00066322385 0.000672869 -0.0049593523 -0.0016252535 0.00042428885 0.0012563976 -0.00092026894 -0.00045283645 0.004306404 0.004883526 -0.00082750974 -0.0043108445 -0.00041799998 0.0035849058 -2.2687871e-05
领导 0.0039217025 0.002229766 -0.0043595154 0.0043722903 0.0018329703 0.0025109744 0.004093484 -0.00076794706 0.0033028799 -0.0032193987 0.0039349208 0.0034696215 -0.0009650102 0.001650873 -0.004732163 0.0018955499 0.003723008 -0.0024261097 -0.0006449056 0.0010281518 0.0040460345 0.0024345277 0.0008397796 -0.0036935918 -0.00083864614 0.00046098392 0.0044615646 0.004681727 -0.0034759482 -0.0004334126 -0.0027735517 -0.0024640926 0.002466796 -0.004301535 -0.0011730167 0.0020446933 0.0036563952 0.0049858936 0.0010075668 0.0010581869 -0.0044268207 -0.00341104 -0.003242382 -0.004081595 -0.0004326599 -0.0041980264 -0.0031145806 0.0030477433 0.004352309 -0.00415447 -0.0047947234 0.0005382361 0.003967853 0.0023388965 -0.004093268 -0.004205715 -0.0026217375 -0.0014810568 -0.0038029687 0.0043061073 0.0043380605 0.0035140857 0.0018106789 0.0013554608 -0.0020340583 -0.0018338382 0.0043796427 6.0203176e-05 0.00501611 6.827769e-05 0.0032799672 0.0038154083 -0.0049781646 0.0032275615 0.0045484407 0.0017443277 -0.0025045895 -0.0038578545 -0.0004017038 0.002308143 0.0019685498 0.0022494644 -0.004593964 0.0033229778 -0.0020410216 0.0029091444 0.003475288 -0.0034492873 -0.0023506798 0.0046871537 0.0043168147 -0.0028169535 0.004493367 0.001763541 -0.0027904275 0.00357536 0.0041635665 0.0030167366 -0.00022779076 -0.004244749
管理 -0.0020325845 0.003097509 -0.004896491 -0.0009462994 0.0031898273 -0.0045942953 0.0029496574 0.004483028 0.0025926174 -0.0035103443 0.0033491985 -0.003259378 -0.0012869398 0.0039052183 0.004683455 -0.0015032534 0.0046870904 -0.0026251243 -0.0036920565 -0.00092318625 -0.00015706841 0.002223363 -0.0023960166 -0.0024952705 0.0031746645 0.0016134606 -0.004408811 -0.0024558045 -0.0044642356 0.0034859008 -0.0021686582 0.0028464524 -0.0047847405 -0.0038387568 -0.0047552465 -0.0015520444 -0.00014302418 -0.002074045 0.0028674977 -0.003258691 -0.0042908783 0.0023104046 0.0027571525 -0.003823377 -0.0049149953 -0.0043237237 0.0033848507 0.00393473 0.002647066 0.0015334438 0.0016653048 0.003819929 -0.0017777751 0.0028425045 -0.0013027464 0.0022225815 -0.0032629538 0.0030117505 0.0021155088 0.001075002 -0.002827612 -0.0008772752 0.00051707716 0.002658335 -0.0008024603 0.0033877126 -0.0027548946 0.001425372 0.001892619 0.0014047857 -0.00473038 0.0044844416 0.0006312091 -0.004329521 -0.0037171964 -0.0036921874 -0.00046730635 0.0026772805 0.0009931033 0.00073220616 -0.0010817989 0.0036290488 0.0019750223 0.002585034 -0.0023919248 0.00018759847 0.0029774916 -0.00026184256 -0.0019913071 -0.0004573153 0.003193693 0.0014181044 0.0038571754 0.004601504 -0.0044109966 -0.00213393 0.0044703465 -0.0025783961 -0.003280875 0.0038685368
居民 0.0015187742 -0.002130214 -0.00031840336 0.0003520217 0.0046686875 0.0033835373 -0.00021797608 -0.0016093245 0.0006481421 0.004243286 0.0048489845 0.0045645917 -0.00020580602 0.0021758955 0.003773315 -0.0021306546 0.0046522985 0.0031613908 0.003872651 0.0028576541 -0.003037469 0.0020493057 0.0024361098 0.0023665822 0.004570692 -0.002346083 -0.0037715107 -0.0039305896 0.0030850812 -0.002952875 -0.00016447998 0.0034111424 -0.0026575006 -0.0039240317 0.0049701696 -0.00026443295 -0.004280088 0.001107664 0.004394148 0.004693903 0.0041028406 0.0039717127 -0.004609655 -0.0044283834 0.0035165453 0.0011683672 -0.002801522 -0.0002157067 -0.0021459248 -0.00082553655 0.0034867418 -0.0008398504 0.0013673893 -0.0044742567 -0.0017122728 -0.0030895853 0.000117232616 -0.00052477355 -0.004140676 -0.0029699735 0.004833374 0.0015123663 -0.0019185641 0.0008435272 -0.0026394478 0.001132154 -0.0049858093 -0.0006643698 -0.00062203617 -0.0009415015 0.00069606595 0.0020779772 0.003514282 -0.000752602 0.004599638 0.0019844691 0.004386128 0.00015583761 0.0031913957 0.003480473 -0.00091553445 -0.0027699163 0.002467734 -0.0030864894 0.0013378729 0.0024273242 -0.00040925053 0.0024108926 0.0007271282 0.0028439555 -0.0018228322 0.0021790934 -0.00043095212 -0.000961622 0.0006065613 0.0005831175 -0.0018274889 -0.00044375146 0.0025929376 -0.0005187471
相关 -0.0004010141 0.00056821696 -0.001226676 -0.0041608913 0.0017624723 -0.00188569 0.0031619226 -0.0012959234 -5.8230275e-05 0.002466447 -0.001852717 -0.00020190133 0.0015778325 0.0006751979 -0.00063422497 0.002560224 -0.0027632872 0.0033572474 -0.0002556376 0.00495125 -0.0033699684 0.002407683 0.0005362891 -0.0025396857 -0.00018961013 -0.0016899587 0.003960578 -0.0034200249 0.0047233435 0.00077504746 0.0019403163 0.0033853217 -0.003748802 0.0027971258 0.002415735 -0.004610159 -0.0048272274 -0.0040180753 -0.0044152467 0.0032463344 -0.0009228455 -0.0041012205 0.0027916832 -0.0015463645 0.0049122763 0.001503331 0.0016112542 -0.0041696667 0.00084075937 -0.002248407 0.0041239276 -0.0032227049 -0.002574652 -0.0008921771 0.001791623 0.0024719764 -0.0021268197 0.0021979131 0.003395933 -0.003462027 -0.0012189822 -0.0019093256 -0.002201614 -0.004726561 -0.0012182223 -0.004646676 -0.0038377093 0.002432756 0.0027328196 0.0033340342 0.002828549 -0.0013168367 -0.00490197 0.0028231319 0.0027935288 0.0014662809 0.001497008 0.0028396104 0.0017699335 0.0015812461 -0.004155814 0.0014670433 0.003900962 0.004574698 0.0036637594 0.0047150957 -0.004117641 -0.0017897437 -0.003924667 -0.004441467 0.0016934276 0.0027213127 -0.00464384 0.0006346558 0.0032913673 0.004383811 -0.0014286592 0.0031939219 0.0022115165 -0.0020355186
影响 -0.0021707697 0.003831017 -0.00045352656 -0.002960049 0.003544936 0.0028085725 0.0023632052 -0.0019001955 -0.002716374 -0.002173787 -0.004158342 -1.5459076e-05 -0.0009614436 0.0011903496 -0.001431371 -0.002452859 -0.001108266 0.0010545874 0.0027992995 0.0016024646 0.0027318927 -0.0016149917 0.0033487403 0.0040743025 0.0032629038 -0.0022430045 0.0020965084 -0.004946073 0.0013074373 0.0012453356 0.004383388 -0.000675635 0.0034398444 0.0030501802 -0.004955716 0.004816496 -0.0033115654 -0.0015950493 0.0012875565 -0.004165703 0.0016516903 0.0032614192 0.0014814833 0.0023970539 -0.00379143 0.0046611577 -0.0046214154 0.0005229366 -0.00084486924 0.00017989642 -0.004475027 0.0039611873 -0.004625641 -0.0031583242 -0.004014906 0.0021135283 0.0026511936 -0.0013644511 -0.003612956 -0.0021325587 0.0049547423 -0.00077704486 0.0001034576 0.002641448 -0.003779828 0.0033838628 -0.0039837477 0.0036425998 0.0037436823 -0.0039820448 0.0012889913 0.002038952 -0.0032406868 -0.00010165525 -0.004573916 -0.004144079 -0.00065150514 -0.0035819027 0.0029775044 -0.0045084003 -0.0041335584 -0.0036712154 0.0043616304 -0.0018434181 0.0039872085 -0.00036408688 -0.0045958795 -0.0028378847 0.0031839637 -0.004676386 -0.0035732945 0.0019348928 -0.00093769655 -0.004883827 0.0010371901 -0.0013764179 -0.0006181843 0.0040781843 -0.0010234487 -0.0026377512
业委会 -0.0036460066 0.0025063595 0.0023592606 -0.001905627 -0.0032530378 -0.0042083454 -0.0023894252 -0.0038369936 -0.0004908126 -0.0044180034 9.062715e-05 0.0024944884 0.0004389637 -0.0042071226 -0.0022497852 0.003972775 -0.004954599 0.00028150412 0.0015967464 -0.00067843014 0.000103230515 0.0017594846 -0.00096741325 -0.00025407522 0.0036300658 -0.0023363829 0.0018821002 0.0005077956 0.002584722 -0.0001330051 -0.0023474873 -0.00016822662 0.0036091392 0.00422508 0.00033799978 -0.004966129 0.003897908 -0.0011783296 0.0015411837 0.0011712115 -0.0027684143 0.0028775735 -0.0046515665 0.0018797198 -0.003635913 -0.0013032712 -0.0032621848 0.0034302836 -0.002711496 -0.0046308534 0.0005019508 -2.289637e-05 0.0037238116 -0.0020898648 -0.0006863703 -0.0025714422 0.004304742 -0.0029586952 0.0013087775 -0.00043652506 -0.0020049242 -0.0025295313 0.0038832831 0.004673908 0.0032267869 -0.0037773524 0.0009810843 0.0029064377 -0.0016595691 -0.0041128816 -0.00171614 -0.00310506 -0.0029830674 -0.0018715545 -0.0014877524 0.002254013 -0.0030461038 -0.001151661 -0.0036032926 -0.004773219 -0.004339668 0.0043679983 -0.0024387192 0.0030427326 0.0019997854 0.0039057143 -0.0012174685 0.002712941 0.0012245728 5.6758487e-05 0.0023033556 -0.0030913828 -0.0016740185 0.0033655076 0.0006224116 0.0044393674 -0.0021029098 -0.0021886253 0.004032188 0.001091947
供水 -4.768253e-05 0.0019090499 -0.0013213999 0.002023116 0.002455713 -0.00036685774 0.0005538709 -0.0017593557 0.0007231124 -0.00012953133 -0.0014241445 0.0042011924 -5.6152527e-05 -0.0008195935 0.005015835 -0.0040362743 0.0026232477 -0.0026710466 0.0038085054 0.0030958317 0.0034108553 0.004115971 0.0020314308 -0.003984237 -0.001348548 0.0037548214 -0.0010450246 0.0039463765 -0.0044808146 0.0009877745 0.003192271 0.0039828103 0.0016770321 -0.004211842 0.0038155112 -0.0028266364 0.0017945766 -0.0026878945 0.0014085963 -0.0045496826 -0.0022657772 0.00089148205 -0.0023853502 -0.003795986 -0.00074659754 -0.004194546 0.0050262073 -0.002002019 -0.0038746246 0.004062212 -0.0032344384 0.00016305584 0.00077313866 -0.0037186914 0.0030093936 0.0046818047 -9.2553775e-05 0.0018496364 0.0005825418 0.0011703199 0.000990743 0.0026670166 -0.00058491336 -0.0021490941 -0.0023594173 0.001535374 -0.0027916802 0.004804623 0.0041174646 -0.0051013404 -0.00412184 -0.0027120092 0.0011196601 0.003986601 -0.003429226 0.0013232294 -0.00027427476 -0.0020552948 0.00050082634 0.004379009 -0.002996831 0.0011428872 -0.005045478 0.000112461326 0.00026100304 -0.00031446488 0.0038380234 0.00075345894 -0.0040631783 -0.0007457708 0.0021211081 -0.0044004344 -0.0022261564 0.0012124953 8.677552e-05 -0.0013458258 0.0050283438 0.0042679706 0.0028742205 -0.0018795867
日常 -0.0048191044 -0.0043249195 -0.0037254433 0.0040950496 0.00030581045 -0.004001051 0.00065039116 -0.004695436 -0.002979049 -0.0038422046 -0.004932853 -0.0025970999 -0.0015323672 0.003137482 0.0036337778 -0.0035873018 -0.00056059007 -0.0015514393 0.0046532555 0.0027025929 -0.0018566201 0.0040794793 0.004418173 -0.0009373624 -0.00441992 0.004378375 -0.0004723278 -0.0036410461 0.0032515544 -0.0025282542 -0.0036561233 0.0043916926 0.0036778855 0.0007498848 -0.0026070562 0.0026000163 -0.0034641097 0.00042787887 0.0015857159 0.0029579783 -0.0018166534 -0.0031724032 -0.0042063864 0.0013749627 0.0025372123 -0.0024061133 0.0035746885 -0.004946872 0.00067180645 -0.001971613 -0.0016684807 -0.0034991782 -0.000178876 -0.001356263 -0.00015400336 0.0030069363 0.0010478299 -0.00019491564 0.0013095569 0.004811008 0.0006786605 0.0033659437 0.0014692897 -0.0014832268 0.0026479817 0.001453002 0.0021566418 -0.0037603755 0.0027099387 -0.0027911367 -0.0017938543 -0.0049140584 0.004443367 0.0026876999 0.0011693155 0.001344485 -0.0020849989 -0.004556224 -0.0041254903 0.002197888 -0.0035617203 0.0032400256 -0.0006320168 -0.0019867076 0.0026459435 0.004971567 -0.0027349219 -0.0051014964 -0.004169056 0.0026205196 0.0018395586 -0.0041678078 -0.0035752247 0.0016081628 -0.0035533668 0.00088445377 0.0046250927 -0.0035729692 0.0030173562 0.0010953405
生活 -0.0033624377 0.0014654244 0.0033610621 0.0024536795 0.0047311382 0.002869398 -0.00041772812 0.004839392 0.003903636 -0.004708278 0.0018800545 -0.0030099924 -0.0041987877 -0.0018049707 -0.002360613 -0.003965902 0.00024303191 -0.0017103524 -0.0017428576 0.0041722558 -0.0007652884 -0.0028480177 0.003159998 -0.003508013 -0.0043969713 -0.0014187802 0.000991115 -0.0021967576 -0.0038285875 0.00081599085 0.0007185324 0.0020731122 0.0017221373 0.0011114203 -0.002938879 0.0020892564 0.0028659385 -0.0040219855 9.805186e-05 0.0049800235 0.003551891 0.0014710358 0.0011416733 0.00067973154 0.0014985484 -0.001609852 -0.0024599237 -0.003566115 0.0039505977 0.0025844483 -0.003325368 0.0035376588 -0.0012270994 0.0008622886 -0.0040735602 0.00072334113 0.0036514835 -0.003725112 0.004324827 1.1167186e-05 -0.0020951286 -6.217674e-05 -0.001215664 -0.0040620915 0.00021391675 0.0027203064 -0.0019544594 0.0019414867 -0.002817764 0.00267851 -9.6890864e-05 0.0012900998 0.003812005 -0.0031006332 0.0024616385 0.00422148 0.0014632412 -0.004118607 0.00077809993 -0.0003613487 -0.0002852282 -0.00040907302 -0.004297669 0.0040228423 -0.0033734026 0.0026351004 -0.0009829149 -0.0002552505 0.0019262913 0.0022884936 0.0031266527 -0.0033067013 0.0028450186 -0.0013212642 -0.00072247855 0.0011884681 0.0034791522 -0.004916684 0.004598812 0.0018065704
政府 0.0013495589 -0.0004546109 -0.00089783105 -0.00148396 0.0013509137 -0.0003372341 0.0025959911 0.0023153105 1.8862667e-05 -0.002221496 0.004618961 0.0016455164 -0.0015121388 0.003180281 -0.0012802888 -0.0042192275 -0.00056036765 0.0047846455 0.00021525023 -0.0050705597 -0.0046788324 0.0007107972 0.0041737347 -0.0008652583 0.0020560008 0.0009881691 -0.002406443 0.000281857 0.0037999311 -0.0008812382 0.0038360464 -0.0022255983 -0.0024109448 0.0043050814 0.0044647204 0.0050335596 0.00045159346 -0.0023666234 -0.0016058245 -0.00046003758 -0.0033638326 0.0025832406 -0.0031880205 -0.0050431546 0.00031467216 0.0039969147 3.904135e-05 0.004682223 0.00048498556 -0.003282248 0.00382239 -0.0029122406 -0.0009232688 0.0006176065 0.0037509424 0.004827259 0.0017341727 0.002698672 0.0049776174 -0.00042699112 -0.0035123907 0.0046460712 -0.0042494414 -0.0032953823 0.0019223373 0.0047236094 -1.3586524e-05 0.0006463281 -0.0043396335 -0.00027672408 0.0025282183 -0.0018185965 0.0003842823 -1.30828275e-05 0.0032898737 0.000242462 0.0039779576 0.00037698736 0.0025567184 -0.003393528 0.0046208347 0.004502684 0.0014290761 -0.002061678 0.0018009222 0.003156968 0.005311389 -0.000140806 -0.002320454 0.0025737358 -0.004299244 0.0025534793 -0.00086425623 0.003246269 0.0046099885 -0.004578353 0.0020447618 -0.0052036853 -0.0005124031 0.0006264029
环保 -0.0016228101 0.0029829766 0.0017049554 0.00024564445 0.005105597 -0.0007647786 0.0035015112 0.004184356 0.0036842942 -2.6737534e-05 -0.003442087 0.004587676 -0.0013356867 0.00038131006 0.00020032615 -0.0023745904 0.0021544183 -0.0037370722 -0.003011725 0.004350428 -9.23655e-05 -0.0027643903 -0.00177306 0.004372304 -0.0007791015 -0.003507743 -0.003323873 -0.005013516 0.0033493899 0.00076930545 -0.00025743275 -0.0014895803 -0.0015742953 -0.0029154664 0.004279468 0.0029939301 -0.0024214122 0.004975245 -0.0047478722 0.0043004956 0.0045112516 -0.0037662538 -0.0047204546 -0.0051436126 5.4523125e-06 -0.0008065597 0.0003938957 -0.0015141135 0.0025669811 0.0034225034 -0.0014778723 -0.0017044788 0.0013904545 8.992251e-05 0.0003647783 0.0037312866 -0.004841714 0.0021963601 0.0047709146 -0.0005503678 0.0035123613 0.005134208 -0.0004981413 -0.001524095 0.0037936228 0.004193892 0.0018592174 0.0020871256 -0.0010909041 0.0012643457 -0.00091254234 -0.005188006 -0.003573001 0.0023171625 0.0036846846 -0.00050507265 0.0047038468 -0.0031236792 4.550776e-05 0.0047301934 -0.0003689497 -0.0032505065 -0.0031068083 0.00034637525 0.0018376436 0.0044562765 -0.0043116324 0.0011946692 0.0018007355 0.0028515528 -0.0014424322 0.0006867556 0.0027573605 0.0023933449 0.0043166573 0.00040315575 -0.0040255743 -0.002961691 0.0016058242 0.001352165
一个 -0.0040368456 -0.0046513746 0.00063230953 -0.004063709 0.002762053 -0.0029806364 0.0028469025 0.003988496 -0.0032452755 -0.002859299 -0.004137727 -0.0033833506 -0.002859237 -0.0018188554 -0.0024296395 -0.002057025 -0.003592324 -0.00149178 -0.0011545278 0.0013171304 -0.0013763822 -0.0036534022 -0.00079764205 0.003871793 0.0005421548 -0.004734293 0.002655824 -0.0019944592 0.0042727585 -0.004328242 0.0038885635 -0.001369217 -0.003888239 -0.00041226752 0.0042228857 0.004172942 0.0024901095 0.0010300432 0.0012372681 0.0030215823 0.0014948926 0.000529184 -0.004749172 0.0016528765 -0.0042782044 -0.0011396605 0.004365027 -3.596785e-05 -0.00015861848 -0.0019104825 -0.0036081225 0.003252798 0.00073423784 0.0023771855 0.004418517 -0.0039644814 0.0024960935 -0.0035952043 0.002072123 0.0030268573 -0.0025030626 0.0052210405 -0.003926997 -0.0046303556 0.003997753 0.0015358502 -0.004214116 -0.0012941764 0.0017712796 -0.0044703167 -0.0018812962 -0.00040988307 -0.0005933322 0.0022695032 -0.00375028 -0.0035197872 -0.0012816025 -0.00075113797 -0.0041531743 0.0020277211 0.0009821327 -0.004499309 -0.0016969525 0.003820238 -0.0010889149 0.0026997558 0.0051703947 -0.00501437 0.003080801 -0.005186917 0.00022433061 -0.0029844178 -0.0037112285 -0.0031971452 0.0012208866 0.0006589038 -0.0030337556 -0.00049468584 -0.0040473742 0.00241188
环境 -0.0038179862 0.0014583461 0.0045186635 0.0042477935 -0.0031399298 -0.00134978 -0.0027502428 0.0020465474 -0.00029225214 -0.004477857 0.00048182736 -0.0036313182 -0.0037847117 0.0003928574 -0.0004860975 -0.0024995753 -0.0046302485 0.002289962 -2.8267774e-05 0.0025298588 0.0048696892 0.0026064788 -0.0005146238 -0.0024567521 -0.0018179013 -0.00038627765 -0.00027848012 0.0013165907 0.0029501955 -0.00030866644 0.0046401965 0.0007523721 0.0013616126 0.004097131 0.0039021259 0.0014835233 0.0032777905 -0.0011261984 -0.0044720406 -0.0047485484 0.00353302 -0.0024971785 0.0020344607 -0.004143739 0.0039305235 0.00096570153 -0.0037418706 -0.005092731 0.002119831 0.0015955719 -0.004715011 0.0014355805 -0.0024883007 0.0040876633 -0.0034857914 0.0048178793 -0.0021054293 -0.0021190841 -0.0026974226 0.00092973287 0.0036782164 -7.856909e-05 0.0032588078 -0.0007978031 -0.0016460085 -0.00414528 0.001636037 0.00034139698 -0.0011739634 0.0010703483 0.0021673762 -0.0014625378 0.00083692285 0.0033648503 0.0009732734 -0.0035800028 0.00076421705 -0.0043394403 0.0030008676 -0.002796163 0.0044580377 -0.0027578892 0.002879379 0.004144651 0.0024869232 0.0052329875 0.0049684127 -0.001981595 8.204934e-05 -0.00389027 -0.002647941 -0.0010677836 0.0016240076 0.0041489154 -0.00030801035 -0.0037450027 -0.0038182456 0.004602489 0.0026400865 0.0044745994
项目 -0.003776994 0.004793837 0.00086646713 -0.0043785623 0.0043951054 -0.0024722444 0.00084716955 0.0025959397 -0.00071431143 0.0014270148 -0.0027709703 0.0046005384 0.0042513884 0.00066982117 0.0026401374 -0.00023553663 0.001093711 -0.003585629 -0.005028904 0.0023617127 0.003313877 -0.0012377482 -0.0021938153 0.0032080659 0.0022798448 0.0045616482 0.0028500333 0.0018502973 0.004702796 -1.46170005e-05 0.00088707753 0.0034196847 0.0012447448 0.0023391345 0.0022448942 -0.0012024774 -0.0022168513 -0.0018122423 0.003126095 -0.0009894269 0.00016713573 0.0009215433 0.0047871866 -0.0024774403 0.0009970741 -9.801088e-06 0.0046569547 0.0039719837 -0.002793254 0.003593201 -0.0036578712 0.0029017876 0.0013635339 -0.0007076319 -0.0009808084 0.004605015 0.0038358506 -0.0021360423 -0.00034473825 0.0038611947 0.00045767258 0.0029754078 0.0025107602 0.0049533593 0.0023587334 -0.003366394 0.0022301762 0.0040657064 0.00038457045 -0.0029630503 0.0040255436 -0.0041691284 0.0015516134 -0.0044918153 0.00023209843 0.0021464543 0.0048186225 0.003670081 -0.0025909871 0.0013868323 0.0032967564 0.004782655 0.003369236 -0.0001506696 0.00266777 0.002959138 -0.0038194351 0.0032380873 0.00024782796 -0.00029250962 -0.0021923762 -0.0011842722 -0.0019407741 0.0031155117 0.0022729575 -0.00050770544 -0.0048644696 -0.0013235591 0.0035563428 0.0003000966
隐患 -0.00030469656 -0.0028670046 0.0043022283 0.0042794254 0.00457724 0.0025182369 -0.0010841511 -0.0033624147 -0.002791649 0.00013411924 -0.0038188926 -0.0024908204 0.0031145383 0.002689867 -0.0025871485 0.0008789937 -0.0041395957 0.0021807023 0.0031162717 0.0022706944 0.004387261 0.0010384617 -0.0028177688 0.0001565289 -0.0040719183 0.0008444895 0.0011870915 -0.0012179468 -0.0016783753 -0.0047355336 0.0025762531 0.00068199524 -0.0034177087 -0.0037246046 0.0035173693 -0.003409385 -0.0035773248 0.0048423805 -0.00046623533 0.0006123246 -0.0006908612 -5.7093777e-05 0.0013384462 0.0025014572 -0.0038774924 0.002338732 0.004709054 0.00078142853 0.004931789 8.445912e-05 -0.004556212 -0.0046341815 0.0046162107 -0.002444873 -0.0047298875 0.003183576 -0.0021986605 -0.0007556256 -0.0007550149 -0.004844235 -0.0036540024 0.0021716116 -0.0047182837 0.0035076626 -0.0032807447 0.0019966927 -0.003519043 -0.00016185697 -0.00016483902 -0.00074290275 -0.004672382 -0.0022709554 -0.0006214512 0.0022039162 0.0043980167 -0.0049025887 -0.0033914514 -0.0025066377 -0.004537145 -0.0014885936 -0.003722762 0.0044671227 0.00223434 -0.0036093558 0.0048548332 0.001957951 0.004653767 0.002014268 -0.004951336 -0.003716106 0.00094910763 -0.0036499258 -0.0021845717 -0.003721793 0.0035779215 -0.001884639 -0.0026689398 -0.0022842993 0.004681376 0.0027394686
请求 0.0016051154 0.0050057843 -0.0019725827 0.0014526586 0.004786779 -0.00469917 -0.0005884723 0.0007975907 0.0031042404 -0.00072330906 -0.0033444064 0.0035621517 0.003257039 -0.00047882323 0.0017668225 0.0007895994 0.0029416648 0.0041568694 -0.003511094 -0.0007852382 0.0049617556 0.0023429273 0.0017278311 0.0005025829 -0.0026132525 0.00041727012 -0.0015529682 0.0043072603 0.0015108152 0.0026707065 0.0040812353 -0.003303351 -0.0023263912 -0.004289422 -0.003760127 0.003974506 -0.00021365948 0.00058579736 -0.0021878688 -0.0029796672 0.0048129484 0.002196692 0.0010208371 -0.00028606513 0.00019036625 0.004080822 -0.0029643662 0.002597743 0.0006005462 -0.0013206302 0.0012326518 0.0045132553 -0.0033805203 0.0018757316 0.0029395795 0.0027833777 0.0035762766 -0.00096484605 0.004349545 -0.0017994868 -0.0005779471 -0.0006661916 -0.0022614521 -0.0013585597 0.0044856616 0.002391198 -9.2466624e-05 -0.002302037 0.004197158 -0.0013510628 -0.0038768635 -0.002783017 -0.0044001685 0.001562654 -0.0041595777 0.0018275253 0.004091323 0.0046305405 -0.0045845164 -0.0039501227 -0.002105751 -0.0050060423 -0.0038637484 -0.0039334926 -0.0004979183 -0.0049691787 -0.0020227567 -0.0014841787 0.001657679 -0.0008489789 0.0029850695 0.000988113 -0.0049984036 0.001421149 0.0032501793 0.0032379217 0.0037590603 -0.004568724 0.0038952695 0.0036331066
城市 -0.0043595093 -0.0019505005 -0.0026669754 0.00075002114 -0.001248698 -0.001982492 0.0014765051 -0.003108523 0.0007815211 -0.00034958482 -0.002567585 0.004125776 -0.0015709978 0.0016173627 0.00041028237 -0.0024688982 -0.00043576103 0.0033211682 -0.004178259 0.0004195686 0.0036484655 -0.00010405616 0.002264729 -0.00233018 0.00067168457 0.0013072701 0.003414183 0.0003285707 -0.0022061071 0.0010229878 -0.0017613767 -0.0047775037 0.0032015708 -0.0046571074 0.0027590864 -0.0044847727 -0.00305762 -0.0026270237 -0.004725969 0.003107756 0.0039530136 -0.0033425756 0.0015991464 -0.0014716547 0.003815142 0.0036952493 -0.00088807114 -0.0019748937 -0.00245013 0.0001466616 0.0043452242 -0.0006084213 -0.0017125292 0.0037912743 -0.0037113037 0.0036832786 0.0018970844 0.003303408 -0.0010377041 -1.0209111e-05 0.0020373957 6.40996e-05 -0.00068643945 0.004318324 -0.0027224112 -0.004304925 0.0026614992 -0.0034947167 -0.0036989497 0.00216857 -0.0014756306 -0.004885372 0.0016547227 0.001403401 0.0026259539 -0.003451909 -0.001815875 0.0016416045 0.0010861744 0.0017815256 0.0017045126 -0.0014009064 -0.0040025036 -0.0025384023 -0.00027625356 -0.003651967 0.0043943375 -3.3151533e-05 -0.0039269375 -0.0012820886 0.0010587801 -0.004227743 0.0029677912 0.00026199114 0.00036005265 0.004884368 0.0013566111 0.0023806102 0.0030103992 0.00033792155
整改 0.0048728664 -0.0035838897 -0.0021028758 -0.0026613488 -0.0010234133 -0.003912287 0.0019251051 0.0029335872 -0.00012583443 0.0015355927 0.00210571 -0.004056576 -0.0027039864 -0.0016444896 -0.0022534553 0.0006563984 0.0020544047 0.0040136264 0.0020859805 0.0010191225 0.0014832666 -0.0030608731 0.0044583236 -0.0021473258 -0.002187739 -0.0042938436 -0.0048936717 -0.0019436734 0.0049204207 0.003547543 -0.002679087 0.004056172 0.000994477 -0.0022480963 -0.004231768 -0.001938382 -0.0022302654 -0.0048478725 -0.003690522 0.0035556776 0.0015910581 0.0008705961 0.0028459576 0.0029996445 -0.00017102237 0.0005212249 -7.993263e-06 -0.0022468304 -0.0044180173 -0.004515033 0.00027426408 0.00041181565 0.0020656686 -0.0024545752 0.0031810792 0.004992783 0.0012687827 0.00025759503 0.0021168718 0.0018765663 0.0014199461 -3.521497e-05 -0.0042280727 -0.0019305712 -0.004456698 -0.0029551664 -0.001890228 -0.002351139 -0.0013509659 -0.0046956423 -0.0006520361 -0.0035532971 -0.0012519847 0.0010889107 0.0024178608 -0.00036951824 0.0028126426 -0.0014670438 0.0024889586 -0.0025899494 -0.0016712453 0.0010944303 -0.001201223 0.0031084241 -0.0025117998 -0.0007069535 -0.0034333088 0.004275881 0.0005213383 -0.0026482872 0.0028537887 -0.0017905934 0.00046467222 0.003955091 0.0016772745 0.003693006 0.003986 -0.0015091357 0.0037614794 0.00065963645
位于 0.0037951034 0.0037798542 -0.0010331414 -0.0026626668 0.0031496657 -0.004671045 -0.0034835602 -0.004372906 0.0045762714 0.0046973946 0.00024891572 -0.0004427776 -0.0014346652 0.00040949017 -0.0037749605 -0.0025839675 0.0017840236 -0.0031156433 0.00013359191 0.0028671408 -0.0043651466 -0.0013205193 0.003508334 -0.0016331505 0.004490128 -0.0002608753 -0.0034378988 0.0029335995 -0.00019668197 0.0048432853 -0.001694037 0.0027261656 -0.0036819677 -0.0024539935 0.0015299614 -0.0022372317 0.002135512 0.0010462739 -0.0024603326 -0.002080319 0.001027579 0.00039046514 0.00036058834 0.003968456 -0.0021183633 0.0010855783 0.0011899509 0.0010702097 -0.0045491643 0.002016624 0.0018000822 0.00266095 0.0011504294 0.0004400172 -0.0022341579 -0.004882413 -0.0015549398 0.0009431227 -0.0039094454 -0.003452523 -0.000119102835 0.0036060892 -0.0024952663 -0.0020409634 0.0031639584 0.0026460805 0.0010250674 -0.0018232635 0.0045178295 -0.003673756 -0.0009510091 -0.0019044067 -0.004997376 -0.0028752303 -0.0037526551 0.0002836177 0.0021288795 0.0006719079 -0.0025722582 0.000953272 0.0032429195 -0.0013461903 -0.0008138855 0.000115774696 0.001544513 0.0020856769 -0.003963296 0.0041243266 -0.0006558392 -0.0026818947 0.0042299083 -0.0026809087 0.0021499817 -0.0031114602 -0.0025911739 -0.0040095067 0.0013386641 -0.00063545234 4.2444604e-05 -0.0048765703
设施 -0.0044531734 -0.00041168928 0.0026296638 -0.0037582405 0.003579167 -0.00048351847 0.004285781 0.0030104457 0.001267272 0.0017793112 -0.0013842708 -0.0032930654 -0.003018467 -0.0005151362 -0.0039390167 0.0001524391 0.00048397388 0.0025459547 0.0037980436 0.0043713273 0.0025971325 -0.0032440303 0.001188367 0.0028898355 0.0025530611 -0.0016036889 -0.001301926 0.0013742888 -0.0041660843 -0.0019672713 0.0041740127 0.004042587 -0.0025301303 0.0014950931 -0.0034962357 -0.0025557128 -6.439743e-05 0.002246247 1.4753264e-05 -0.0027644616 0.0011201726 0.0014150728 -0.00083340995 -0.0010160701 -0.0029669479 -0.00014816422 0.0023227874 -0.0037755938 0.003547296 -0.003993082 0.00016169692 0.0020199681 0.004027761 0.00049751304 -0.0017024496 -0.0014124322 -9.2667564e-05 0.0031835372 0.0045331204 -0.00022860547 -0.0037061677 -0.0021015515 0.004114238 0.004767992 0.0010154287 -0.00058416853 0.0046712854 -0.0019289814 -0.0013010843 -0.0010502449 -0.00070687843 -0.002572384 -0.003491874 0.0038978849 0.0011832465 0.0013696374 -0.001495887 0.003639271 0.0011706896 -0.0034003898 0.0047598747 -0.0024276383 -0.00016394637 -0.0015285832 -0.0015182202 0.0039945836 0.0016788144 0.003342515 0.0004897212 -6.439238e-05 0.00084279396 -0.0048858975 -0.0038443664 -0.0045907055 0.00041163497 0.00019852421 0.003567458 0.003037514 0.004768495 0.0010173579
占用 0.0030997146 0.0033706378 0.0029130992 -0.0029206069 0.0029241138 0.0019825632 -0.00012057156 0.0006862594 -0.002870319 -0.004290894 -0.004282779 0.0030898734 0.0034281188 -0.003970939 0.0034674774 0.0018758214 -0.0014133473 0.005020703 0.0025468871 0.0029379933 -0.0029837377 0.0027032522 0.0027224736 0.0013274899 0.0010162505 -0.002181521 -0.0034016268 -0.0010732507 0.004349758 -0.00336368 -0.0005316578 0.0030120094 0.002682945 -0.0025666684 -0.0005379649 -0.0030210356 -0.0013695959 0.0009534906 -0.0046418644 -4.9276638e-05 0.0021531358 0.0017829997 -0.000894101 0.0025892917 -0.0028576897 0.00050854724 0.0025198446 -0.00045303407 0.002070908 0.004679524 0.0015873741 0.00034261317 0.0045203185 0.0016682798 -0.002531349 -0.00017738495 -0.00080082443 0.0012660105 0.0015536478 -0.001213888 -0.004605608 -0.0005072824 0.004656559 -0.0035008758 -4.439541e-05 -0.0012646321 -0.00382455 0.004116529 -0.0013238026 -0.003577846 -0.00092101324 -0.0023733121 0.0019342101 0.00088792125 0.0044144006 -0.0027034425 0.0045504426 -0.0025456427 0.00016182502 0.004606463 0.0012086842 -0.0036957057 -0.0016901819 -0.0015151107 -0.002227191 -0.0031909624 -0.002693595 0.0007760247 0.001431514 0.0029083209 0.00296034 0.003029042 -0.0018280711 -0.0023692844 0.0036644987 -0.0031218054 -0.0033641604 0.0004991335 -0.0027663396 -0.00072174234
道路 -0.004058738 -0.0023068858 -0.0042739683 0.0017940308 0.0049144067 0.0040391623 0.0023296936 0.00028194842 0.0042771166 -0.0019841245 -0.0042734374 -0.0030103247 0.0036629185 -0.0017695396 -0.004091974 0.0015044162 0.001887682 -0.004461233 0.00049299235 -0.005012386 0.00013704287 -0.0038665335 0.0049006524 6.826161e-05 0.0045438255 0.0044569457 -0.003951901 0.004992156 0.004919359 -0.0017965755 0.0017861486 0.0040110783 -0.0023044376 0.00348946 0.0022819822 0.0039962344 -0.00021118775 0.0045737843 0.0045441426 0.0041486686 0.003910595 0.0038992793 0.0043928064 -0.0044378685 0.0018960033 0.0019955481 -0.004349887 -0.0027926487 -0.004833923 -0.0037719244 -0.0045933016 -0.0026715968 -0.0029433467 0.00056007813 0.0011310027 0.003344777 0.0023086634 0.0034104176 0.00026067885 -0.0030967572 0.0015111513 -0.0049655074 0.0016375844 6.981122e-05 0.004692868 -0.0011331228 0.002970566 -0.002140028 0.0029296568 0.002656692 -0.0013893128 0.0042824247 -0.0024743155 0.0017302736 0.0047862213 0.00434385 0.0030919907 -0.0034645945 0.0026935767 -0.0020707576 -0.0006382152 0.003466663 0.0011979113 0.004858815 7.4397117e-06 0.0012309907 -0.003707188 0.0011396126 0.0026216358 0.0036648489 0.0011339122 -0.0044321427 0.00088912743 0.003829012 -0.0002455046 0.001954002 -0.0026580067 0.0015299235 -0.00396146 0.0017904964
车辆 0.0038419664 0.00047085786 -0.0016739836 -0.00042077905 0.003968799 -0.0013575563 -0.00081214367 0.002129117 0.0009951749 -0.0028414647 -0.0049667903 0.0041814744 -0.0028110922 -0.0005141694 0.0020610986 0.0041242572 0.0011357765 0.0016026229 -0.0011675061 -0.004813643 -0.00206094 0.0042364676 -0.002918425 -0.0046710954 -0.0032252572 -0.0017368199 0.0042973086 -0.0020387648 -0.0012660966 -0.004033507 0.0040741093 -3.5155237e-05 -0.0043701036 0.0011457467 0.0005691162 -0.0037265043 0.002726518 0.0012062864 -0.00083793624 0.00089409685 0.0005655192 0.002376098 0.000784099 -0.002010291 0.004043462 -0.0046969703 0.0024170717 -0.0045559 0.0049594278 0.00093623844 -0.0033177414 -0.0033352212 0.001625456 -0.0027489027 0.0007803647 -0.001514629 0.0036762904 -0.0036292663 -0.002024299 0.004914206 -0.003681753 0.0017755661 -0.00014774884 -0.0036575634 0.0020955757 -0.0002983404 0.0034947456 0.00034795064 0.0031991191 0.004397211 0.0024965534 -0.0039023375 0.0009865591 -0.0024374183 -0.0050117234 0.0043504303 -0.00093486655 0.0020499143 0.0034160696 -0.0037360126 -0.00016570139 -0.0028067972 0.0016536737 0.0009592409 -0.0014504807 0.003792341 0.0028679408 -0.004656243 0.0019788716 -0.0007070181 0.00017969323 0.0008503325 -0.00053566805 0.00055948924 -0.0015583518 0.0049149743 0.0032052884 0.0035054402 0.0010056333 -0.0034675405
尊敬 0.004751974 -0.00039853653 0.002865412 -0.0043671583 -0.00097217906 -0.00059351465 0.0035948427 0.003287841 -0.0025866367 -0.0049169706 -0.003357839 0.0035253975 0.0035420654 -0.0006929422 -0.0006463442 -0.0043467265 -0.0023827013 0.002461578 0.003605437 -0.0036812269 0.0010535709 0.0049264515 -0.0033900766 -0.00212618 -0.0014110991 0.001813222 -0.0010698937 -0.0027808307 -0.004858383 -0.0050035417 -0.0034224782 -0.0019203938 -0.004943796 0.004212007 -0.0027679955 0.0007548214 0.0016856594 -0.0038564324 0.0019236947 7.600409e-05 -0.0010059808 0.0003364267 -0.0008624767 -0.0019145401 0.0016784898 -0.0008478128 -0.000407877 -0.0020501448 0.0021577661 -0.0042372383 0.001274578 -0.003940229 -0.003389953 0.004067328 0.0015503155 0.0048790355 0.0015485479 -0.00040875637 -0.0017159121 -0.00194247 -0.0002471253 0.004761311 0.0015088846 -4.40831e-05 -0.001489139 0.0048692003 -0.0032071972 0.0015578714 0.00032547233 0.000979015 -0.0016055852 0.0029376298 0.0013628205 0.0040994296 0.0028840187 -0.0033465344 0.0015057693 0.0020350441 0.003215469 0.0029454425 -0.0030895863 -0.00055494305 0.0034202123 -0.004814839 -0.00068001833 -0.002548609 -0.002142124 -0.0036823377 0.0012132264 0.0030182628 0.004034721 -0.0033269203 0.0027500496 0.00048553495 0.00022241139 0.0016077969 0.0020973375 -0.0022157726 -0.0028371657 0.0013429427
费用 0.003252198 0.002704374 0.0021340002 -0.0018919924 -0.0036139775 -0.0014400106 -0.0044982396 -0.0014385547 -0.0008407729 0.004124712 0.0019914648 0.004161569 0.0031011128 -0.0050036283 -0.0031541425 -0.004865846 0.003681717 0.0045907917 -0.004863553 -0.0029117838 0.00022240789 -0.003731247 -0.001500133 0.0037303779 0.004420986 0.0029083288 0.0011977926 -0.002805226 0.00026484512 -0.0013102618 -0.0009151552 -0.003729609 -0.0024863014 0.004569561 -0.0004814853 0.0019241453 -0.0031828894 0.0037264442 0.00015558818 0.0050654677 0.004410261 0.0011025531 -0.0036668666 0.002615121 -0.0011791702 0.0008722183 0.0047991583 -0.00064243586 0.0011654131 -0.00044438028 0.0027714237 0.0007398 0.0008959717 -0.00033643958 -0.0035387527 0.0018680554 0.0031229367 0.0036034898 0.004890807 -0.0035447273 0.0033983788 0.0014428139 -0.0033816223 0.0007570364 0.0031781392 -0.0041599846 -0.0049638688 0.0014919665 0.00015189279 -0.001088602 0.0038398516 -0.002038451 0.0040837806 0.001399633 -0.0026806572 0.0023365344 0.0016854836 -0.0013399639 -0.00062416354 -0.003895138 0.00044586125 0.0028709827 -0.0047911596 -0.0030107896 0.00452018 -0.0010855951 0.000910985 -0.00024686416 -0.0034380767 -0.003126813 -0.0044645374 0.0009989642 0.004483463 -0.0024725255 -0.0037378052 0.0048866267 0.0021537319 -0.0015903502 -0.0034085647 -0.004606992
社区 0.0028824392 0.0007077863 -0.0013388935 0.0038538442 0.0019339734 0.00441575 -0.0006799732 -0.004953743 0.0021149449 -0.0010883228 0.0006123844 -0.0022093116 0.004742782 -0.001177395 0.0039151288 -0.000977364 0.0015609507 -0.0002613557 0.0049392343 0.0033252258 -8.979629e-06 -0.004228944 0.0013583917 0.00044283463 0.0014296141 0.0031840599 0.0019449329 -0.0035517206 -0.0024211642 0.0029848379 0.0002832473 0.004778929 0.00040158822 0.002263863 0.0028570765 0.00037269664 -0.00042274038 -0.004760871 0.0012155742 0.0023384292 0.0041841264 0.002436222 0.0013915617 0.0026125782 -0.004308308 0.0012256769 -0.0013811593 0.003672576 0.0025824916 -0.004671673 0.0018495522 0.002379789 -0.0005359518 0.0048093675 0.0038003367 -0.0012631022 -0.0032702177 0.0035879486 -0.004386675 0.004877087 0.0043447535 9.3275514e-05 0.00043424158 0.0041249203 0.0033193263 -0.0016267053 -0.0037664997 0.001785254 0.004640296 -0.004027982 0.0024882723 -0.004646113 -0.002682618 0.0017662431 0.0035667103 0.001791448 0.0038256056 -0.00010065835 0.0026802775 -0.0048087128 0.003163974 0.0014925264 -0.0040209363 0.002861332 0.00017857263 0.003957806 0.004165 0.0003927701 0.003495808 0.00013583682 0.00215767 0.00016825265 0.00424724 0.0035535288 0.004005826 0.0027246969 -0.0007433335 0.0032826604 -0.0025566777 0.0045064595
依法 -0.004644593 0.0028565058 -0.0024014728 -0.002972068 0.0037535126 0.00393656 -0.0005376397 0.0028367545 0.004261119 0.003220578 -0.0022634177 -0.0026658091 -0.0010151055 -0.0031746845 -0.0049671885 0.003671553 -0.0009446975 0.0030387815 -0.002148541 -0.0014668441 0.003243335 -0.0014322135 -0.0002974344 -0.0012156288 9.115536e-05 0.0022761875 0.0048965532 -0.00030784417 -0.0023937232 0.00015950335 0.0008854415 -0.0027346704 0.002433165 -0.00467831 -0.0009956888 -0.0014237816 -0.0007896495 0.0033139929 -0.00017869724 -0.00039666495 -0.0022438578 0.00097296986 -0.00037651273 -0.0005045388 0.0015337807 -0.0040395595 -0.001727551 0.0013797471 0.0034343288 -0.0026873415 -0.0028650623 0.0020103771 0.0025427265 0.0011987396 -0.0037383516 0.0020926243 0.0007852708 -0.0021649094 -0.0034127098 0.0039662896 -0.0016303405 -0.0009436734 0.0012780385 0.0026400571 0.004653349 0.00040142302 -0.00061958376 0.0017277098 -0.003124806 -0.0047662747 0.0006734685 0.0014004296 -0.00017791153 0.0026023458 -0.0024057778 -0.00036770033 0.0032313871 -0.0027419357 -0.004972237 -0.00075272226 -0.0012895656 0.0022829466 -0.0045239017 0.0015901655 -0.0006791587 -0.0038959684 -0.002035574 0.0022704797 -0.0012079913 0.004463846 -0.0032939126 0.0007038741 0.003381623 -0.0028792971 -0.0014195953 0.004693322 -0.0040934677 0.0029442736 -0.0043584276 -0.001995781
服务 0.0031136402 -0.002878766 -0.0009870301 0.0022669595 -0.0012049832 0.004458724 0.0023087214 0.0039080973 -0.0002599168 -0.00016919867 -0.0028884741 -0.0026881332 0.002428319 -0.004178325 -0.00020566014 0.0009231312 0.002132367 -0.0028573256 0.001163724 -5.316835e-05 0.000868923 -0.0045826538 0.0014714405 -0.0028771928 8.605279e-05 0.0043829987 0.00213186 -0.0035533593 0.0027735808 0.0019218961 -0.0019301999 -0.0007551551 -0.00382786 0.0005506379 0.0017041606 -0.0037974268 0.0010630611 -0.0044933064 0.0028623173 -0.0047336034 0.0003894057 -0.0018824402 0.0047677113 -0.0014819426 0.004020574 0.0036043653 -0.0019271395 -0.00044184443 -0.000102055295 0.0017344313 0.001347743 -0.0014456152 0.0012023023 -0.0030361204 -0.003903449 0.0049114637 0.0046658292 -0.0032562723 -0.003199097 -0.0047104866 0.0042653675 -0.0017830287 0.00287627 -0.002898034 0.0030051088 0.0023727035 8.0426085e-05 0.0005972992 0.003742426 -0.0018192071 -0.0045441505 0.004268749 -0.0045029726 0.0026298456 -0.004600788 -0.0048439153 -0.0037246542 0.0038216636 -0.00034356804 0.00048768855 -0.004136428 -0.0040944377 -0.00042581337 -0.0006812633 0.002327731 -0.0026576705 0.0008546717 -0.001675711 6.897738e-05 -0.0022529375 0.0033778155 -0.00089796033 -0.004847275 -0.0019443585 -0.00026123825 0.004382484 0.0032960947 -1.8466086e-05 0.0019095939 0.002032434
缴纳 0.0007152511 -0.0012464537 -0.0013680821 0.004786724 0.002620393 0.0026917541 0.003549046 0.00071004307 0.0018099939 -0.003403998 0.0014705576 -0.0046717715 0.0032098584 0.0005682625 -0.0025973064 0.0011587988 -0.0023465103 0.0031183434 -0.001954411 0.0038412372 0.0017691515 0.0048826504 -0.003780499 0.00022694276 0.0019242889 -0.002005818 -0.0010769034 -0.002839808 -0.0036794932 -0.0044583497 0.0025611918 0.0026208896 0.0037752038 0.0035053003 0.0029328829 0.004000127 0.0042397887 0.0047746403 0.0025118643 0.004478607 -0.00033350213 0.0032626188 0.00091755483 0.0008878312 0.0047357064 0.0018249275 -0.000340955 -0.0024820697 0.0011445977 0.002258607 -0.0005352296 -0.0016729578 -0.0044183666 -0.0009848262 -0.0008203979 0.0023681875 -0.0005700275 5.025537e-05 0.0016822944 0.0044719535 -0.0020674798 -0.0035423462 -0.0008887486 -0.002742669 -0.0014690349 0.0018679214 0.0014002346 -0.0029692412 0.0023020767 0.0018998005 0.002545154 0.004758349 -0.0002385278 0.004025633 0.004582258 0.004700073 0.0044219815 0.0010278154 0.0044910526 -0.0011140002 0.0045496766 0.0042802617 -0.0003238724 -0.0017497692 0.001049872 -0.0006025218 -5.7756333e-06 0.0021899436 0.0027870222 0.00056609616 -0.0016605569 0.002593955 -0.0019898312 -0.0028131471 -0.00472316 -0.0042707785 0.0038164668 0.0041193375 -0.0033668508 -0.0045893732
从未 -0.0040303706 -0.0037544328 0.00030695237 -0.002522089 0.0017217118 -0.0037782502 0.00018667556 0.0014156477 0.004905048 0.0039253747 -0.0015220384 -0.00072196365 -0.00036034925 0.00300591 0.003949052 0.0049367533 0.0043071173 0.0032110391 0.003127959 -0.00052371074 0.0008663146 -0.004077754 -0.0030956282 -0.0010022549 0.0048547494 0.0023438905 0.0049798107 0.0031544454 -0.0040482464 0.0036041872 -0.0030308252 -0.0029798646 -0.0035564308 -0.0013269834 -0.0006170675 0.002947807 -0.004647819 0.00063625316 0.0024096766 0.0034207592 0.004931037 -0.0023884387 0.003505392 0.001767922 0.002962741 0.00010466908 -4.0552197e-05 0.0019237011 0.0018309394 0.0008863766 0.001264518 -0.0040514637 0.0011086137 0.0021342079 -0.0015949178 -0.0023263467 0.001376828 0.0022116748 -0.0020124484 -0.0044856295 0.0039041932 0.0030173613 -0.0032284842 -0.004258176 -0.0028965583 0.0027476773 0.0015044605 -0.0029938505 0.0008901437 -0.004715699 -0.003971153 -0.0043089865 0.0030647302 -0.0036929988 0.0048552817 -0.0035783215 0.0046990123 0.0009093206 0.004004713 0.0015598609 0.0022194327 0.0006992394 0.00021945244 -0.004463192 0.003287784 1.3338469e-05 0.0003485747 0.00060067687 0.0042346767 0.0047030784 0.0026972848 -0.000861126 -0.0036064438 -0.0044229412 -0.0027285933 -1.3332275e-05 -0.0021788375 -0.0006541763 -0.004811019 -0.0017572978
意见 -0.0030224526 -0.0016596947 -0.0048943246 0.0027243253 -0.0018421995 -0.0009352261 0.0035169153 0.00081773667 0.0023335596 -0.004259262 -0.0033671728 0.0020330243 0.004372133 -0.0012334957 -0.0044250614 -0.0024543006 0.0010173289 1.3682697e-05 -0.0034071282 0.002360038 0.0029259063 -0.003279536 0.003118604 -0.005017871 0.004376717 -0.0043229205 0.0047547393 0.004191149 -0.0026513874 -0.004203261 0.0036363276 0.0014909649 0.002159672 -0.0038331288 -0.004353044 0.0010516348 -0.00410428 0.0039795344 0.003919729 -0.0004999669 0.0034197902 -0.0013398948 -0.0047475384 -0.0011263269 -0.0049918205 -0.0008883118 0.0015981062 0.0019856275 -0.0032417672 0.0026089554 0.0010990212 -0.0019900238 -0.0016380437 0.00025254046 0.00025821556 0.004512765 -0.0047318093 0.0037549352 -0.0048754322 -0.0015117341 -0.0025180457 0.0027335775 -0.0035143178 0.0043941233 -0.00087354897 0.0006097014 0.004256084 -0.00020591033 0.0012621853 0.00049708696 0.0025257433 -0.00263493 -0.0032653813 0.0003274956 -0.0015803154 0.00057367433 -0.0031499055 -0.0026861236 -0.0009300025 -0.0012202158 0.00018218273 0.0029997246 0.004050338 0.0049971775 0.0033362424 -0.0018181627 0.002515138 -0.0021223177 0.0021567112 0.00066408043 -0.0007032338 0.0024985622 0.0045769736 0.0036398692 -0.0048699393 -0.0028047417 -0.00024268749 -9.535916e-05 0.004372703 -0.0016434295
解决 -0.0016538426 -0.0027456067 0.002049961 -0.0022836078 0.0035562317 0.00026521983 -0.0039692735 0.0046756878 0.00063182035 -0.00023644466 0.0013496238 0.0010828099 0.0045435647 -0.004441608 -0.0026579436 -0.004583972 0.001213423 -0.0017763156 0.0026451088 0.003926225 7.5139283e-06 -0.0021237407 0.0014716407 -0.0030497815 -0.0008021024 0.003410685 -0.004872831 0.0010421377 0.0027811197 -0.0040895543 -0.004740291 -0.004556902 0.0012180454 -0.00092741643 0.0005786329 -0.0024776908 0.003703688 -0.0039539062 0.00086330785 -0.004401947 -0.0046792515 -0.0010743275 0.001969256 0.0003397314 -0.00015273636 -0.0019094397 0.004554285 -0.0023165955 0.0042039324 0.004787998 -0.0004580153 -0.0035436123 0.0006603386 0.004306472 -0.0039135497 0.003994308 0.0012916492 0.0018372755 -0.0031800403 9.485097e-05 -0.0034983424 0.004274573 -0.0024969 0.0017178828 0.00078502245 -0.0022586929 0.0018746279 0.0017255711 -0.003112063 0.0015692415 -0.0022290386 -0.004723252 -0.003831871 -0.0018476752 -0.003361839 0.000991365 -0.0045241313 -0.0029038112 -0.0010522379 -0.0028547742 0.0010363507 -0.0017913986 0.0016471179 0.0033366175 -0.0038169504 -0.0024573593 -7.302691e-05 -0.0045800176 0.0049736034 -0.004335821 -0.003988964 -0.0027388618 0.0011999847 -0.004516355 -0.0047914935 0.00316091 0.004907976 -0.0040408233 0.0018949277 1.9321444e-05
开发商 -0.0030244505 -0.0029140867 -0.0026292966 -0.000616911 -0.0009584346 -0.0036141262 0.0026953397 0.0023544293 -0.00493745 0.0033508358 0.001481004 0.0008490962 0.0019490542 -0.0038547693 0.004253313 -0.0030780355 0.0018922427 0.0031580783 0.0025045886 -0.003399098 0.0014820885 0.002519087 0.0010440304 0.0026305423 -0.0006220565 0.004311211 -0.0012432664 0.0050495006 0.0034275728 -0.0029204453 -0.0011390437 -0.00056633237 -0.0018483951 -0.0035898495 0.00368646 -0.0028264034 -0.00141426 0.001114123 0.00022914234 -0.004016127 0.0015739877 0.002645075 -0.00070009625 0.004404272 0.0013507839 -0.001676014 0.0044534174 -0.00016279079 0.003560006 -0.0028305138 0.0046195723 -0.0013075672 -0.0036712831 -0.0014820703 -0.00042675334 -0.0033108091 0.004413933 0.00036450676 -0.0019086256 -0.0010834117 -0.004081893 -0.0031889293 -0.0039360146 0.0021660144 0.004708372 0.0003095224 -0.00096555485 0.0006212134 -0.004439488 -0.000945065 -0.0021291932 -0.003989537 0.0031664732 -0.0039471593 0.000153594 -0.0013240324 -0.002768496 -0.0012639146 -0.0029347902 0.0045705475 -0.004840848 -0.0008672867 0.00017651459 0.00014552065 0.0027555171 -0.001236606 -0.0040557864 0.00029941625 -0.004540157 0.0025422315 0.0048199673 -0.0010338086 -0.0038878776 -0.00027046676 0.00024972437 -0.0016940671 -0.0024201814 -7.532353e-06 -0.0030119088 0.0008549172
情况 0.004033807 -0.00075756904 0.0037512034 -0.00090018514 -0.0029807123 -0.0038632164 -0.0018537225 -0.0041534468 -6.449169e-05 0.0025857212 0.000117237294 0.0018247165 -0.0040260046 0.0041478216 -0.00066375267 -0.003523534 0.004337148 0.0013511438 0.0012527633 -0.000110200766 -0.0011946241 -0.0019477382 0.0039996156 -0.0049939468 0.0026032627 0.00083168515 0.003900356 0.0023284869 -0.0027453864 0.0032626248 0.0021491407 0.0025577324 0.0010237874 -0.0027336988 -0.004452191 0.002317397 0.0014670391 0.0036462042 -0.0045537716 -0.0050074253 -0.00043381844 -0.00012659976 -0.00036086043 -0.004257036 -0.002242334 -0.004414897 -0.0015582208 0.0011376374 -0.0020434002 0.0027537015 -0.0040284605 0.004649499 -0.004083425 0.0036592647 6.907988e-05 -0.0036691695 -0.003426883 0.0032218194 0.000971997 -0.0007930106 -0.0025831796 -0.003202615 0.004553581 -0.0006874776 -0.00086856185 0.0013413553 -2.7368733e-05 -5.502772e-06 0.001250289 -0.00011436389 0.002580816 -0.0031110812 -0.0035368854 -0.0008868705 -0.0015088932 -0.002071645 0.0006786387 0.0032368123 0.0020006704 -0.004693192 -0.0009923364 0.00012851808 -0.0038023284 0.0012250117 -0.00025609185 -0.0011200712 0.004713212 -0.004458462 0.0047681034 -0.003918963 -0.0041843033 -9.510709e-05 -0.0048369355 -0.0038101468 -0.0042763855 0.0006412288 0.0011909283 -0.0016950949 0.0027675943 0.0033437135
收取 -0.004369864 0.0037751165 -0.003344653 0.0023899146 0.0006806722 0.0017858916 -0.0023001 0.004281849 -0.00024110508 -0.0015173695 -0.0041742213 -4.693155e-05 0.002764358 -0.004967872 -0.00062155107 0.00408163 0.0011030426 0.0046178447 0.00096433674 0.0020762784 0.0015307432 0.0007799792 0.00086344103 -0.0047501028 1.6273358e-05 -0.0010014274 -0.0012343696 -0.0048168493 0.0011992378 0.0048092576 -0.0018204083 -0.0044623762 -0.00029306556 0.002940143 0.0033738639 0.0046324837 0.003359078 0.0048221922 -0.0020719182 0.0018672475 -0.002633443 -0.0026811576 0.00041974234 -0.0027525413 0.0006356299 0.0006610376 0.0042967545 -0.0009425292 0.0013609943 0.0031297556 -0.0034354238 0.0042102435 0.0005429442 -0.000102813756 -0.0038403012 0.0035611033 0.0008113316 0.0010170277 0.0019351905 0.0046398784 0.0022859827 -0.003944722 -0.003371905 0.0010638458 0.003215206 0.004109743 0.00038087685 -0.002466481 -0.004533743 -0.0033165328 -0.00089431077 0.0023789962 0.00023760476 -0.0021950053 -0.0026226025 -0.002509064 -0.00266045 0.0037348527 -0.0027642844 -0.0015550769 -0.0043028323 -0.0002143964 0.00063087116 0.0017932177 0.0033241017 -0.0028608276 0.0032171037 -0.0045728204 0.0033316766 0.003957533 -0.00012048034 0.0035711536 -0.0016806041 -0.00037005972 -0.0012840291 0.0035988963 0.004283309 -0.001710187 0.0024560678 -0.0041206023
西地省 0.0015217045 -0.00073282374 -0.0032934165 -0.0012022398 -0.004777652 0.00062919996 -0.0013809502 -0.0037709814 0.003680504 -0.004433932 0.00223083 -0.0005260808 0.0016601994 0.00050565373 0.0009242148 0.0020367082 0.0010814313 0.004966249 0.0048198197 0.003655893 0.003948744 -0.0047722696 -0.0043956037 0.0038420055 0.0027490263 -0.00053961354 -0.0019072955 0.004829146 -0.0016084732 -0.003888408 0.001430149 0.00040031996 -0.0039254786 0.0045091133 0.0012998199 0.0045388034 0.0015900154 0.00033174135 0.0019662615 -0.002188896 -0.003923315 -0.00044804488 -0.0019985214 -0.003171446 0.0035094281 -0.0022281732 0.00046604226 0.0021375977 0.00480603 0.003870342 0.0015255467 0.0043224352 -0.0012128941 -0.0001942795 0.004840764 0.0016072047 -0.004916303 0.004450342 0.002404951 -0.00068221753 0.004012051 -0.0037982503 0.0035382367 -0.0047683604 0.0039008083 0.0027615177 0.00037945586 0.0029215657 -0.0021207107 0.002691684 -6.9610265e-05 0.0039269417 -0.0005992316 9.710915e-05 -0.0034482237 0.004726805 -0.0029053655 0.0014719289 -0.002197503 0.0027969046 0.0042756596 -0.0023570822 0.002663294 0.0018438608 -0.004013942 0.0023715792 0.0049592126 -0.0019071026 0.002392864 -0.0021198664 -0.0001904388 -0.0026625902 -0.002709634 0.0037361996 0.00022849662 0.003791344 0.002112129 0.0018981335 -0.00056876015 0.001509363
办法 -0.0008262974 0.0010991876 0.0037103787 -0.0023515117 -0.0038457594 -6.9405236e-05 0.0005748749 -0.0021252492 0.0027654367 0.0023362576 -0.003584627 0.0022475717 0.004290794 0.00012474947 -0.0006933889 -0.00059719174 -0.0034339002 0.0006545659 -0.004164866 0.0009335217 0.0014872596 0.0050039534 -0.0035926052 -0.0026795778 -0.003174219 0.0029551361 0.004174687 0.0021424817 -0.0008214455 0.0037412187 0.0018890878 -0.0032759155 0.0046031913 0.0019937512 0.003857711 -0.0036650705 0.004174756 0.0030728357 0.004279218 0.0009750938 0.002912015 0.001616287 0.0014811625 0.001921698 0.00042986637 -0.0013417709 -0.0027802077 0.0015115759 0.0030418157 0.0024250755 -0.0044437363 -0.00031039544 0.0030467527 -0.004059589 -0.003320958 -0.0027243746 0.0004383737 0.0007748242 0.003096842 0.0048178704 0.00017224574 0.0029559745 -0.0028472748 0.0003090771 -0.0015110364 0.002223866 0.0013230218 -0.0013494885 0.0010064599 0.0039552017 -0.0003811132 0.00077284395 -0.0028457646 -0.0015761846 0.0009306446 0.0027897167 0.00054442795 4.660214e-05 -5.8429974e-05 -0.003926747 0.0010623421 -0.00061317644 -0.0036256593 -0.0025235724 -0.0018680919 0.0010130072 0.0016438091 0.0018580625 0.004985945 0.0014266389 0.0023507345 -0.00010269107 0.004809748 -0.0044636275 0.0046921773 0.0021427246 0.0025609997 -0.0035315421 0.0009109943 -0.0007450821
成立 -0.0030774737 0.0047830804 0.0025827794 0.0020460666 0.002094901 0.0035150477 0.0017772337 -0.0032020449 -0.0009369523 -0.0005800816 -0.0001727355 -0.0026817047 -0.003604121 -0.0011378776 0.0028501072 -0.0044574053 0.0022379018 -0.0012098472 0.0049366034 -0.0033275161 -0.00033144106 0.0005112542 -0.00019952215 -0.0035417518 -0.0046076793 0.0010365508 -0.0012546509 -0.0042482927 -0.004931862 -0.00047213258 -0.0037044007 -0.0034919737 0.0036779314 0.001731906 0.0044330927 0.0005204352 -0.0033908335 -0.0011340305 0.0039623715 -0.0009148084 0.004986975 0.0036286241 0.0016556701 -0.004214026 -0.005024704 0.0040879557 0.0031327528 0.0022169943 -0.00342808 0.0046905945 -0.0043445295 -0.0032783002 0.0041203285 -0.0007421286 0.004177844 -0.004342426 0.00405878 0.0016011174 0.003925974 0.0013053233 -0.003488054 0.004617672 0.003924432 -0.0005061816 -0.0042158943 -0.0044019506 0.00039159876 -0.0028726384 0.004068391 0.002044663 -0.00495725 0.0007153578 -0.0020145385 -0.0017568693 0.0024204273 0.0037346724 0.0012278289 -0.0040355935 0.0046400176 0.0008787827 0.0048181317 0.0016316283 -0.0041417973 0.00465294 -0.003735152 -0.0032601093 0.0022657623 0.0031616795 0.003304935 0.003387957 -0.0009144762 -0.0014798918 -0.0017050536 0.001992674 0.0026126655 0.0019384044 -0.0021732773 -0.004788382 0.004792577 0.0009989875
入住 0.0021675148 0.000119793505 -0.0013372201 -0.003062596 8.317861e-05 0.0037410064 0.003918632 0.001288248 0.0007783001 0.002648926 -0.0011640616 0.0019669903 -0.0047174217 0.0018807893 -0.0004047255 -0.00054692454 -0.0025013345 -0.0045100823 0.0017118673 -0.0022767065 -0.004623163 0.0026215042 0.003547116 0.001829046 -0.0050076838 0.0009946714 0.0028453805 0.0040048696 0.0023020548 0.0006571329 0.002204956 0.003289239 -0.0008586917 0.00076583034 -0.0024921356 -0.0023153452 0.003730775 0.004782266 -0.0036471405 -0.0043086354 0.002909182 0.0010162194 0.0017468872 -0.0003989908 0.005005419 -0.0027654301 0.004997993 0.0047875973 -0.0039753956 0.0018663598 -0.00041548524 -0.003897752 0.0030347032 0.004116808 0.002882026 0.0043046824 -5.8705744e-05 -0.00070834917 0.0009976126 -0.002875224 0.0007596395 -0.003791731 0.00493441 0.0019111871 0.0040186667 -0.0030034513 -0.004979701 0.0021451472 -0.0045632483 -0.003913057 0.0021558148 -0.0012719538 0.00016298315 -0.0024922588 -0.0041792174 0.0024065531 -0.0033390569 0.002132412 -0.00031593547 0.0036619282 -0.00074950844 0.003286117 -2.9445018e-05 0.0006073753 0.002863422 0.0035609878 0.0035000343 -0.00058603997 0.0030038583 0.0014478286 -0.0021179025 0.0012899343 -0.0010337366 0.0037483906 0.0036414326 0.00012612822 -0.0008619916 -0.002555895 0.0026661458 0.0011560165
2区 0.0014876949 0.0041735745 -5.4391545e-05 -0.0042515355 -0.0032816608 0.0005139678 -0.003893369 -0.00021695832 0.0033966606 0.0017689442 -0.0010488402 0.0044020386 0.0018431427 0.0037009781 0.0048182374 0.0038654937 -0.00014252884 0.004535892 0.004699276 -5.5327695e-05 -3.6763067e-05 -0.0024392228 -0.0040385425 -0.0030996248 0.004916248 -0.0027019435 -0.0025002954 0.0015182567 0.0038933635 -0.0015566333 0.004326919 -0.004422404 -0.0008863302 0.0022331753 -0.002344408 -0.004495202 -0.0023632124 -0.0004886726 0.004682416 0.0033430543 -0.002034994 -0.002210418 0.0012682611 -0.002919066 -0.0014721114 -0.0033800146 0.0039106384 -0.00474657 0.00027291733 -0.0040757167 -0.0049208323 -0.0012021393 -0.00074559153 -0.0028172247 0.0048146746 -0.004039417 0.0021553182 0.002288335 0.0031912196 0.0019202043 -0.0030180803 -0.0028776182 -0.0012357268 0.004858887 -0.0020399545 0.0016432687 -0.002147476 0.002084678 9.188771e-05 0.0019670406 -0.004008788 -0.0039184657 -0.0025268365 -0.0026833315 0.0031045026 0.0042156433 0.0033862775 -0.00432138 0.0013589114 0.0014910366 -0.0027824102 0.0038040276 -0.004750594 0.0010538165 0.0028785712 0.002222519 0.0041687996 0.0030759168 0.0012907059 -0.0015642432 -3.5729954e-05 0.0018307872 -0.0045858165 -0.002359152 -0.0036271855 0.003037842 8.480207e-06 -0.0034435042 0.0014582453 8.506729e-05
华庭 0.0027926096 0.0018188242 -0.003898287 -0.0020317899 0.0005924194 -0.0044812225 0.004107375 -0.0024552138 -0.0042925845 0.00059686665 -0.004494446 -0.00096584746 -0.00038230838 -0.001326471 0.0034691722 0.00087058346 0.0026811932 -0.004468564 -0.0014173056 -0.0017064221 -0.0046865144 0.0009737684 0.001537979 0.004566154 -0.00063486444 0.0030594422 0.003016713 -0.003977199 -2.7192535e-05 0.0023975738 0.0014060218 0.0005495591 -0.0016027965 -0.0040264386 -0.0025110012 -0.001195579 0.00038239357 -0.004345902 0.0034771368 0.0016907139 -0.004785572 -0.0018988186 0.00019247696 -0.0014156274 0.0013719313 -0.0023480996 0.0022759975 -0.004665978 -0.001616024 0.0019563565 0.002751775 -6.337876e-05 0.004015093 0.0016424339 -0.0006104197 0.0028804555 0.0020015545 0.003247236 -0.0029660373 0.004163927 -0.00316123 0.0020963193 0.004269297 0.004983059 0.0038691694 -0.0013220453 8.796913e-06 0.0040430366 -0.0034845527 -0.0043322537 0.004216135 -0.004851396 0.0016916154 -0.0044970782 -0.0010863043 0.0037443505 0.0031767467 0.0027895859 0.0008466346 0.003165126 0.0006864541 -0.002278906 0.0027671144 0.0011313539 0.004579995 0.0011536301 0.00078488333 -0.004875789 0.0039493237 -0.0032763332 0.0030032664 -0.0005143087 0.002280573 0.0041753356 -0.0008204213 0.00011154702 -0.0024219658 -0.001864834 -0.0003631315 0.0019355929
高层 -0.0016672164 -0.0019065518 0.0042721555 -0.0030409945 -0.0039937906 -0.003926495 0.004026995 0.0030442385 0.0039074314 -0.0026267709 1.8618519e-05 0.0016238361 0.0021977124 0.00040580748 0.00020455106 0.00040193822 0.002288217 -0.0013395835 -0.004975756 -0.004138231 -0.00047829258 -0.0022766949 -0.0018939809 -0.0010658152 -0.004696774 0.00032896956 0.00033498957 0.0014084122 0.0029731714 0.0027259975 0.004521778 -0.0006014332 -0.0035915016 0.0025884514 0.003259942 -0.003434984 -0.0011747372 0.0002522157 0.0017145593 0.0013268532 0.0020523597 -0.004849757 0.0021247582 0.0042679054 -0.00015524642 0.0014363896 -0.0040332144 -0.004125691 0.0043108836 0.0009059344 0.0038351135 -0.0026064615 0.0001503883 -0.0023425398 -0.001511145 -0.00037457608 -0.003670123 -0.0012726492 -0.0047757938 -0.0026861168 -0.0009545769 -0.00073378533 -0.003975618 -0.00082156376 -0.0022267206 0.00038555718 -0.0024519775 -0.0021204867 -0.0043663 -0.004196455 -0.0020522715 0.0038767196 -0.0010429292 0.002132906 0.0041236267 -0.0023781573 -0.00053970766 -0.0039519286 0.0029342684 0.0042694155 -0.0005404896 -0.00036954336 -0.0016511322 -0.00014162954 -0.0011503058 -0.0032915631 0.001720222 0.0018988973 0.00014131174 0.0042095273 0.0021659748 0.0005575111 0.0016073573 -0.0030870754 0.00021791653 -0.0044947676 0.0003349268 0.00096215983 -0.0023698907 -0.0018590986
楼顶 0.0043855347 -0.004242277 0.0038032394 0.0024227775 0.003614082 -0.003977001 -0.0039033403 0.0014509057 0.0016544394 -0.0020133057 0.0011839861 -0.0024659045 -0.003571685 0.0016085245 -0.0030783326 0.00447503 -0.00059573486 -0.004526515 0.0023807269 0.0028453693 -0.0026751189 -0.0023479646 -0.0010595303 -0.0004912937 -0.0011703452 0.0036756736 -0.0048437933 -0.0020031843 0.003381269 0.00027445375 0.0007281901 0.0037659875 -0.0037998466 -3.8597376e-05 0.0008797862 -0.0036946763 0.00050911616 -0.0013049284 -0.0046709576 -0.0012937922 -0.0042946693 -0.0037670638 0.004917474 0.0006989096 0.004770035 -0.0046772067 -0.0034027633 -0.0006826448 -0.0017254162 -0.0041388567 0.003186213 0.0049829856 -0.0023586235 -0.002999609 0.00012012223 0.0010527307 0.002048196 0.0033597543 -0.0027625132 0.0013271556 0.00041945613 0.002925743 -0.004874718 -0.004737583 -0.004960216 -0.0012889573 -0.0030027297 0.0020367687 -0.0007257648 0.00029099564 -0.0015527012 -0.0015422547 -0.0040354417 -0.004487981 0.0015167585 -0.0015989615 0.0042275 -0.0041269856 -0.0029219617 -0.004113383 0.0006239924 0.004095795 -0.00080933893 -0.0003239253 0.0032761565 -0.0034983126 -0.0043151653 -0.0013758088 -0.0013201071 -0.0026238952 -0.0018929723 0.00015924878 0.0030380727 0.0030688026 -0.004159299 0.0046975426 -0.0022183862 -0.005088796 -0.004263019 -0.0029974044
水箱 0.0019117829 -0.002687904 0.0046435297 0.004672949 -0.004264186 -0.002902556 0.0015975484 -0.0021280132 0.0016921741 -7.383953e-06 -0.0029457062 0.0022535468 0.0029897594 0.0014296932 -0.0026712648 0.0007344546 0.0026978857 0.0026467952 0.00014306339 0.0031128037 -0.00012885814 0.0016485617 -0.0009856751 0.00088709773 0.001002871 0.0033917562 0.004715986 -0.0038928385 -0.0013726234 0.0008064257 -4.6030726e-07 0.003693635 0.0014992307 0.0023406758 0.003713097 -0.004780552 0.0047485526 0.0029799778 -0.0038118782 -0.0032389208 0.0019772516 0.00038826952 -0.0021493768 0.0030102984 -0.00065363385 0.0036500085 0.00054536195 -0.004483205 -0.0011689891 0.0023694122 -0.0030457699 -0.001054389 0.0031821195 0.0029782108 -0.0025228902 -0.0019707037 -0.00054415007 0.0031193981 -0.0037896743 0.0038727273 -0.0020417161 -0.002336639 0.0037549187 -0.0043828757 0.0029668398 -0.0031816345 -0.0031944315 0.0034071147 -8.713959e-05 -0.0043639317 -0.0025649874 -0.0025419816 0.002678117 0.0032597925 -0.00021924016 -0.0034955433 0.0028100095 0.004666831 -0.0048946943 0.0013505121 0.0038684143 -0.003876925 -0.0019679964 0.0029500786 0.00032407415 9.622117e-05 -0.004248953 0.0016781815 0.004099503 -0.0005748384 0.00046928352 0.002026506 0.00012236979 -0.0025477018 0.0015732915 -0.004152847 -0.002844337 -0.004960799 0.0023058234 -0.0044740275
长年 0.004881991 -0.0015925888 -0.004508189 0.004343366 0.0026810872 0.0023449895 -0.004684699 0.002608737 -0.0036677108 0.0034940275 0.0012036575 -0.003616393 0.00066061725 0.0018276423 0.0051177926 -0.0013775405 0.002425961 -0.0040116594 0.0020257314 0.0045699915 -0.0027726367 -0.0030399188 -0.0044427123 0.0015094188 0.00069004385 -0.0011591214 -0.001901772 -0.0049906275 0.0045019593 0.0049268836 0.00017382429 0.0045850207 0.0031215537 -0.0004567589 -0.0046109627 0.0030620152 0.0019715403 0.0045161117 0.0014327698 0.0031163234 -0.0005538101 -0.00090461824 0.004227225 -0.0051552276 0.0040735244 -0.0032977713 -0.00011577164 -0.0017160829 0.0024119823 -0.0029177251 0.0019462031 -0.0011178285 0.0012765947 0.0010351135 0.001465448 0.003691499 -0.002389942 -0.00042460978 -0.0002988953 0.004172001 0.004087653 0.004658378 -0.00042665022 0.00021465511 0.00049575005 0.004786947 -0.002894124 0.0035602462 -0.0010388235 -0.0020362088 -0.0028444694 0.0014053243 0.004989602 -0.000738688 0.0042244853 0.0010931849 0.0028492452 -0.0006691567 0.0015211692 -0.0004394413 0.00019691543 0.0037491112 2.4545894e-05 -0.0020875777 -0.004637846 -0.0033379013 -0.00031734825 0.0016916712 8.291124e-05 0.0011991791 0.004698501 0.004297662 -0.0012528384 -0.0014431746 0.003315191 -0.0029540125 -0.0013427323 -0.0043501407 0.001951901 0.0035014881
龙头 0.0044356855 0.0009482682 -0.0040195733 0.0015034399 -0.0016397273 -0.0036372785 0.0010425478 0.003834323 -0.003962803 -0.0017537648 0.0018626666 -0.0028715476 -0.0045254086 -0.0038094525 0.005280313 -0.0001897532 0.003823953 0.003863923 0.0044098697 -0.0025907853 -0.0037343195 -0.00023897547 0.0047827465 0.00067073933 -0.0018593966 0.0013905047 0.004719896 0.001243234 -0.003678607 0.0028096077 -0.003636148 0.0030903942 -0.000101780744 0.002009117 -0.003184575 0.0040208553 0.0013011384 -0.0031793632 -0.0018020186 0.00037048763 -0.0039612767 -0.0017633548 0.002080485 -0.0008482156 -0.00361217 -0.001635001 -0.0023793734 0.0015516384 -0.0009180757 0.0025782457 0.0030467338 -0.00025692704 0.0025430736 -0.0022972845 0.001804949 -0.0002971538 -0.0032796424 -0.0034911036 0.00334206 -0.003927612 0.004642401 0.0025248465 -0.0048192735 0.0047569307 0.001888483 -0.0008034033 -0.0038693289 0.0050127157 0.003944639 -0.0011957706 -0.0034259746 -0.0025223447 0.0040716627 0.0032525281 -0.001849006 0.0021549647 -0.0042672283 -0.00074458576 -0.0026699575 0.00078385975 -0.0037375689 -0.0037268891 0.000954203 0.0036578216 -0.003147667 -0.004361231 -0.001309637 -0.00034946698 -0.00030186042 -0.004230435 0.0039403015 0.0026865548 0.0027649691 -0.001331704 -0.0010283996 -0.004125656 -0.0011822606 -0.0040751686 -0.0027759091 0.0049386555
霉味 -0.0049084583 -0.00034030076 0.002423106 0.0036232886 0.005068187 0.0039659296 0.0046189995 0.00039332398 0.00029468018 0.0043725935 -0.0027563425 -0.0021460822 -0.0009943661 -0.004845696 -0.004365901 -0.004433029 -0.0027941312 0.0025927594 -0.0015768849 0.0043658726 0.00109116 0.0027775608 0.00070406223 0.0038908646 -0.0006052558 2.6028996e-05 -0.00069377583 -0.0010075464 -0.0042182007 0.0008426167 -0.0041146404 -0.0031100134 0.0013214251 -0.0045809234 -0.0013675401 -0.0035772996 0.0015087021 0.0024192946 -0.00032269026 0.0036413479 0.0036227969 0.0015735648 0.004052765 -0.0046786875 0.001993612 0.004716117 0.0038628664 -0.0022378631 0.0045226314 -0.0010137542 -0.0015433206 -0.00070633774 0.00047130274 0.003508678 -5.4702003e-05 -0.001767543 -0.0011258913 0.0023815203 -0.00069669547 0.0014921277 -0.001442799 0.0015228388 0.0028756934 7.872315e-05 -0.0049497103 0.0049308455 -0.0031416027 0.0032313697 -0.0041093198 -0.0028636802 0.0037339674 -0.0046491646 3.7333255e-05 -0.0045908736 -0.0015379329 -0.000921007 0.0043702098 -0.0025164762 -0.0014288239 0.0021409162 -0.0013222592 -0.0011221693 -0.0038933735 -0.0008813038 0.004249811 -0.004242129 0.002796273 -0.002288621 -0.00028906035 -0.0028572408 0.0029079756 0.0023552016 -0.0039423383 0.00063431164 0.004662382 0.0036066927 -0.0027079214 0.00018082092 0.00143686 0.0022731235
可少 0.00094633875 0.00094634906 -0.0019440001 -0.0014617401 -0.004633709 0.00081868935 -0.0040285015 -0.003467906 0.0048517766 0.003013262 0.0029410133 3.6392874e-05 -0.0048731514 0.0044397414 -0.0025971967 0.0029294225 0.00046847394 0.001649724 -0.0049105803 -0.0009994053 -0.004291113 0.00085983524 0.00062571885 -0.0018895592 -0.0014073026 0.00048414542 0.0034127608 5.855441e-05 0.00032402444 0.00038799254 0.0043247226 0.0014809088 -0.0027563872 -0.00078196847 -0.0048363744 0.002999381 -0.0040815943 -0.0038427718 -0.0039848303 0.004007775 0.0039456915 0.0023432975 0.00391749 -0.0038264885 -0.00092962757 0.003304366 -0.00033250364 0.0014512634 -0.002300099 0.0045567323 -0.0028935487 -0.0028678013 0.0023614503 0.0013450499 -0.003859866 0.0048589665 0.004514183 -0.0015308657 -0.0007041656 0.0051153116 0.00495882 -0.0003884587 -0.0011473881 -0.001828175 0.00091971713 -0.0031066767 0.00034471383 0.0042362255 0.00042425332 -0.0010581436 0.0046046497 -0.0013354431 -9.0174624e-05 -0.0023103936 0.002689988 -0.0027446493 0.0024421948 -0.0015897134 0.0004424187 0.000862885 -0.0024200045 0.0036684882 -0.004158084 -0.0017961976 -0.0029592658 0.004201589 0.005115047 -0.0038832852 -0.000663455 0.0027410982 -0.00275952 0.00076634006 -0.0018148412 -0.0031752242 0.002899335 0.002440916 -0.0047476343 0.00452784 -0.0015837604 -0.002686904
用品 0.00036514 0.0028026372 0.00014264899 0.0006600775 0.0031243346 0.003833334 -0.00469606 0.0040428285 0.0007006761 -0.0014276173 -0.004653931 0.0043140296 0.003132396 -0.0042434405 -0.00066958595 0.0009062807 0.0029155966 -0.0020998018 -0.001162814 -0.0047792397 -0.0019827576 -0.0019660995 0.0029127495 -0.0041076364 -0.00034277956 0.0025570658 -9.705426e-05 0.0012098922 0.0016740627 0.0020276785 0.00043363898 -0.00481366 -0.0013741002 0.0004027667 -0.0038640148 0.0036405884 -0.0011062042 0.0025268486 -0.00088809995 0.00044959763 -0.0017498984 0.0010482575 -0.0005319047 -0.0052104383 -0.0020401052 -0.0011144313 0.0012380108 -0.0028622125 0.0038889465 0.0030697172 -0.00048715423 0.0023463652 -0.0028148934 -0.0020215202 -0.0022038282 -0.004072231 -0.0026256843 -0.002883706 0.0051571163 0.004779591 0.0035742489 -0.0041788695 -0.0007940204 -0.004011145 0.0017452438 -0.004454482 -0.00044548427 -0.0003259845 0.0015813704 -0.004533828 -0.0036880795 -0.005123942 0.0039385096 -0.0039217984 0.0038654376 -0.0018422697 -0.0011165035 0.0001645005 -8.750764e-05 -0.0005250272 0.002403408 -0.0027346113 0.0019542098 -0.0041288366 0.0032248616 -0.003226818 0.0018217938 -0.0025192495 -5.5337612e-05 -0.0009732578 0.00042127504 -0.0026856877 -0.0015042005 -0.0009362489 -0.0018389479 -0.001215585 -0.00370342 0.0025840723 -0.0019955542 -0.0016212015
强致 -0.0005796266 -0.0014418347 -0.00425655 -0.004349422 -0.0036946295 -0.0046407874 0.002715166 -0.002720415 0.0035402782 -0.004831962 0.002956997 -0.002598102 -0.001878473 0.004673582 0.0022739277 0.0006251098 -0.002963968 -0.003419265 0.004822971 -0.0020419452 0.004688579 0.0010588157 -0.0036676163 -0.001578276 -0.001731637 0.0041704252 -0.0016752557 0.0033654126 0.00464901 -0.00018447396 -0.0028289424 0.003366406 -0.004220921 0.0017990847 0.00035339978 -0.001597214 0.00046882837 -0.004956065 -0.0031535495 -0.004268134 0.0036542001 0.0024708859 -0.002955777 -0.00039052192 -0.0019513083 -0.004435215 -0.0014831017 0.00074171426 -0.00012265032 -0.0010204298 -0.0022999952 -0.0018458903 -0.0011329757 0.004901318 -0.004811939 0.0044778143 0.002110128 -0.00047082183 -0.00045428376 0.0026865003 -0.003252619 0.0034306778 -0.0007536019 -0.002341104 0.0020376444 -0.0003159477 0.0039892183 0.0026720108 -0.0030514793 0.0006855854 -0.001712398 0.0016689528 0.0014181436 -0.0022227287 -0.0048819426 -0.0020625656 -0.0016875382 0.0032330314 -0.0042612674 -0.0030852414 0.0041407575 0.0025435986 -0.0021784755 0.0029964691 0.0031906476 -0.0025400321 -0.003966524 -0.00089206384 0.002440734 0.0033284917 0.0009086979 0.0046754954 -0.002194455 0.005005464 0.003153816 -0.0015695812 -0.004954041 -0.0030473694 0.00065147027 -0.0040280395
癌物 -0.0024691727 0.0008578078 -0.004784224 0.0026429922 0.005198728 0.0031591535 0.0030666492 0.0043357327 -0.0004704682 -0.003942413 0.0038624455 -0.003911358 -0.0042677396 -0.0013713368 0.0024110458 -0.0010477642 -0.0013173176 -0.0043036295 0.002779536 0.0011448768 0.0024132824 0.0016754456 0.00039463653 0.0022355227 -0.0019263256 0.00038721052 0.0025981592 -0.0039894683 -0.0023561562 0.0005452655 0.0020312439 0.0039289617 -0.00070550235 -0.004977167 0.0030894203 0.003949589 -2.3966164e-05 -0.0035324201 0.0008196268 -0.0036814876 -0.0037461952 -0.004212403 0.0023107082 0.0025042032 0.0041172574 -0.0050007626 0.0041767275 0.0009119207 -0.0020478854 0.0016234053 -0.002692341 -0.0005068245 -0.002107426 0.0026669088 -0.00013582066 0.0039644684 -0.0016705778 0.0049949684 0.0021656433 0.0016327268 -0.0047690566 9.5446885e-05 -0.0045982646 0.0046540815 -0.003537234 0.0032724123 -0.0029969753 -0.0032517295 0.0048886808 -0.001366086 0.0034496903 0.004215363 0.0015136189 0.0014689374 -0.0017160389 -0.004490564 0.0021817267 0.0031855293 0.004534347 -0.0012557415 0.0020142202 -0.0035956819 0.0025107136 -0.00010278039 0.0035643373 0.0045108134 0.0028411478 0.00092328206 0.000592662 -0.004657934 -0.0014013385 -0.0012360954 0.0020528538 -0.0019440437 -0.0022655681 -0.0014292224 0.0011527153 -0.00046593425 0.0019052584 -0.0039457916
健康 -0.0032050624 0.0035707154 0.0043922914 0.0036333322 0.0048408834 -0.0008968022 -0.0050143213 0.0024726456 -0.004850011 0.0022854628 0.00022958584 0.0016894387 0.0019893881 0.0010200024 -0.0013107015 0.0011954834 0.0036997178 0.0019635058 0.0033192064 -0.002934018 0.0034485233 -0.0019010929 -0.0041150237 -0.0028586043 -0.0018718668 -0.0008740719 -0.0005708936 -0.004116433 -0.0039218315 0.0031888809 0.004428685 0.0029809086 -0.0022328338 0.0012149345 0.0042075445 -0.0041734646 -0.002456161 0.0017228097 0.00018458304 0.0041888286 0.0008344781 -0.003960696 -0.0016877436 -0.0050752196 -0.0022348557 -0.004030921 -0.0013209594 -0.002302198 -0.0008735247 0.003937213 0.0031633181 0.0014082907 -0.002947307 -0.0048725135 0.0011057515 0.0021744336 -0.0035953654 -0.0018400176 9.926823e-05 0.004080442 0.00087266136 -0.002486112 0.0039246823 0.0050042667 -0.004597652 -0.004918759 0.00027449892 0.0028977252 0.0021005296 0.0016226933 0.0030284068 -0.00038534144 -0.0038285314 -0.0012242364 0.004955557 -0.0012105351 0.0031756866 -0.0030992501 -0.003831665 -0.0036261266 0.005124138 -0.0047284416 -0.004669108 0.0049426905 0.00013715136 0.0017927075 0.0047782506 0.0010341788 -0.0015840589 -0.0029050165 -0.0014692207 -0.0014114997 0.0026661307 0.0044048573 0.0010320139 0.0026310538 -0.0013706719 -0.0038124989 -0.0047120964 -0.0014601686
保障 -0.0049555884 0.0005979912 0.0045359214 -0.0012970828 -0.0005236124 0.0025178788 0.0037104916 0.00090397877 0.0047800043 0.0036796343 -0.0019677475 8.747824e-05 0.003236757 -0.0018709365 0.0016806868 0.0042447513 -0.0022067658 0.0004853082 -0.0004782502 -0.0012400191 0.0048447205 0.0024914446 0.0047104405 -0.0005658287 0.0016696103 0.0031107399 -0.00066403294 -0.0014289928 -0.0028478473 -0.00488471 -0.0018128045 -0.0022228297 -0.0042679594 0.0046948823 0.0015161403 0.0050091706 -0.002284384 0.0016643272 -0.0038435315 -0.0022603918 -0.0014682435 0.00064884033 -0.0036471353 -0.0007398288 -0.0039248304 -0.0039160107 -0.0016784718 0.0003727204 0.001191354 0.0042384937 0.0012476594 -0.0026924163 0.0031214096 -0.004208047 0.0015847823 0.0022731284 0.0015193273 -0.0032287887 -0.004044292 0.0013327042 -0.0010532344 0.0037341628 0.0025668233 0.0031913135 -0.00039824253 8.791845e-06 -0.0026432967 -0.0026410762 -0.0013601785 -0.0035480836 -0.0033106941 0.0004368616 0.0029029227 0.001811003 -0.0018755302 -0.0004275687 -0.0016125095 0.0040153624 -0.0031411974 0.0042111278 0.00047094646 -0.0036786988 0.0002996963 -0.004625699 0.0042923708 0.004826412 -0.0010750196 0.0015037117 -9.756534e-05 0.0036437092 -0.0015624989 0.004242733 0.0046577514 -0.0010582993 -0.0033467277 0.002041121 0.0045927153 -0.0036014803 -0.0024077059 -0.0022736
街道 -0.0020031699 0.0010476853 0.004662368 -0.0017992418 0.00077045785 -0.001642972 -0.00049049564 0.00073752593 0.004626441 0.004747844 -0.004261139 0.0036318523 -0.0021597901 -0.005036582 0.00053898076 0.00421828 -0.003413672 0.0010031717 0.00029202888 -0.00042989678 -0.0026378233 -0.0003523718 0.0012558814 0.001871545 -0.004062293 -0.0028233079 -0.005029458 -0.005035318 0.003722434 -0.0037846966 -0.0032351583 -0.0044152914 -0.003869881 0.0028962032 0.001127356 -0.0037772073 -0.0031618585 0.003945967 -0.003506933 0.0044349353 0.0047147856 -0.0029656026 0.00042457072 -9.082386e-05 -0.0027162114 0.0035681648 0.0006445543 0.0047235736 -0.0021278192 -0.0041573336 0.0008260674 0.0023171015 0.004265829 0.004171577 0.0014865568 0.0030344347 -0.0049207993 0.003496698 0.003118459 0.0046380633 0.00214712 -0.0012940046 -0.0038772107 0.0022107335 -0.0011449622 -0.0049461196 0.0047677783 -0.003401714 0.0014054945 -0.0021609496 0.0017880587 -0.0044616773 -0.0033745775 0.0033636314 -0.0040556234 0.004680202 0.0032650093 0.0025639213 -0.0032119625 0.0029464066 -0.0011412884 -0.00079795806 0.0012849724 -0.002820852 -0.0037357986 0.0035284103 -0.0011018468 -0.002185393 0.002457943 -0.0032301762 -0.0005660102 0.003908329 -0.004454622 -0.0040031536 0.0019552112 0.0020407394 0.0035693457 -0.004273905 -0.0027562557 -0.0023008196
重视 0.0015849645 -0.00056885486 -0.0006546517 0.00020416237 0.0027965766 -0.00057001185 -0.002879414 0.0011471157 -0.0032364274 -0.00399143 0.0047481554 0.004029325 -0.0039328514 -5.540277e-05 0.0014372912 0.0021779388 -0.00031308198 -0.0037600808 -0.00081498123 0.0011698405 -0.0026831944 0.0019102681 0.0021318318 0.0037419691 -0.0020818466 0.003347103 -0.0044958214 0.00064471585 0.0003144481 -0.0030609537 -0.00013362437 0.0005789146 0.004264532 0.0042059817 -0.0036211712 0.00459349 0.002936869 -0.0009214227 0.00035436449 -0.0006182115 0.002044081 8.828695e-05 0.0005720253 0.00414307 0.0038338245 0.003117707 -0.0032768568 0.0021444187 0.0036461398 0.0046757055 0.0015766049 0.0039005463 8.196256e-05 -0.0019339328 0.0005143 0.003862847 -0.004121512 0.004066491 -0.0010666089 0.0027434 -0.0041312473 0.00089720846 0.0008418267 0.0046370714 0.00020647464 -6.131731e-05 -0.0034112441 -0.002927469 -0.0040589157 0.0018790606 0.00022416048 0.0041838754 0.003576857 -0.00081500836 -0.00021858008 -0.0014628414 -0.0019785373 0.0032809628 -0.0010991467 -0.0032483935 0.0023756346 0.0033195026 0.002573251 -0.00405956 -0.0007645734 -0.00038854853 -0.0010438076 0.0017523635 -0.0027558326 0.0006718282 -0.0032778732 0.002755587 0.0013095344 0.0003347914 -0.0010617343 0.0020677187 -0.0032062964 0.0042060544 0.0016700565 0.00051175075
检测 -0.00029671247 -0.0048803175 0.0038806074 0.00049366377 0.00024789124 -0.0030651733 0.002239648 -0.002201874 -0.0021669287 0.0019105342 -0.0026637667 0.0043634134 0.00016744334 -0.0040162317 0.0009864763 -0.0034502828 -0.004764052 -0.002732643 0.0036317008 0.0033021944 0.004198788 0.0032662079 0.0011656639 -0.002208417 0.000534463 0.0007756511 -0.0043325187 0.0018626609 0.004602771 -0.0027046122 0.002229284 -0.0010842405 0.0033240616 -0.0041314336 0.0035373 -0.0040372913 -0.0019464741 -0.0006503789 0.004731914 -0.0031097636 -0.0006309888 0.0041808295 0.0024370872 0.0025993355 0.0029992885 -0.0005451362 0.0042376416 -0.0020999683 -0.0047953227 -0.003555002 -0.00271646 -0.0018098055 -0.0028744487 0.0011635721 0.0047455863 -0.0004065715 -0.0032118359 0.00045315162 0.0023731866 -3.772858e-05 0.00027741233 -0.0038869914 0.002649112 -0.0016193143 -0.001408504 0.0031007119 0.0043632374 0.003413773 -0.0016650822 0.0022802856 -0.0016996732 0.0039783153 0.0007099082 0.003605402 -0.00011141198 0.0048710704 -0.003934596 0.0040882067 -0.0019381157 0.00058298267 0.0012371716 0.0011877584 0.0037274044 0.0019813182 -0.0029857284 0.0035025824 0.0030544135 0.00413651 0.003456703 0.0045897886 -0.00065441243 -0.00434916 0.0006287766 0.0020780961 0.0009854223 0.0041751503 -0.004390779 -0.0042007915 -0.0024553675 0.0014596165
公司 -0.004257904 -0.0016841987 0.0024134198 0.00027281747 -0.0044816816 0.0014718274 -0.004488214 0.0010973878 -0.0043925364 -0.0019339226 -0.00044400888 -0.0007764178 0.0013017843 -0.0017689794 -0.0015610381 -0.0033958324 8.2095234e-05 0.003857795 -0.0006586933 0.000896948 0.0033576745 0.003409006 0.0035763106 0.0040801778 -0.0046488033 -0.0030370073 -0.004907112 -0.0036433123 -0.00408931 0.0010095091 -0.001201413 -0.0033765866 -0.00050817215 0.0015182445 0.001635829 -0.0030249404 0.0042005037 -0.00013626342 -0.0017196985 -0.0024061366 -0.0004928127 -0.0021745833 -0.00020036746 -0.00026398807 -0.0032555463 0.0016325964 0.003935576 -0.0043702726 -0.002908388 -0.0008371211 0.0017427905 0.001578099 0.0033273778 -0.004260747 0.00087411585 0.0015345318 -0.0014736288 -0.004551095 0.0010204845 0.00045322799 -0.002772008 -4.4817254e-05 0.000519982 0.0033525454 0.0021815242 -0.0024135616 0.0039103734 -0.0016939488 0.0020443033 0.00074156036 -0.0011983103 0.002786361 -0.0012134709 0.0025375176 0.0005455289 0.0033165144 -0.0037415517 -0.0040376945 0.00062809716 -0.0018496505 0.0013260322 -0.002132437 0.002886026 -0.0011621783 -0.0046094195 0.00086998375 -0.0005027476 -0.0050584977 0.003115831 -0.0008721198 0.0011599598 -0.0028128314 0.00026587868 0.0030115456 0.00010890187 -0.000843507 0.0020216212 -0.003690429 -0.0030129037 -0.0043394305
